<?xml version="1.0"?>
<opencv_storage>
<opencv_ml_svm>
  <format>3</format>
  <svmType>C_SVC</svmType>
  <kernel>
    <type>LINEAR</type></kernel>
  <C>1.</C>
  <term_criteria><iterations>100</iterations></term_criteria>
  <var_count>1000</var_count>
  <class_count>2</class_count>
  <class_labels type_id="opencv-matrix">
    <rows>2</rows>
    <cols>1</cols>
    <dt>i</dt>
    <data>
      -1 1</data></class_labels>
  <sv_total>1</sv_total>
  <support_vectors>
    <_>
      -1.47111109e-03 -1.89852645e-03 -1.87669066e-03 -1.57045887e-03
      -1.83656986e-03 1.72497763e-04 -3.06886435e-03 -2.42992723e-03
      2.85080238e-03 1.83521281e-03 -1.85021712e-03 -1.48475834e-03
      -2.81094201e-03 -2.22304324e-03 -1.67526561e-03 -1.74268102e-03
      -1.62695639e-03 -2.50553107e-03 6.79525174e-03 -1.64060364e-03
      -2.55028973e-03 -2.22031376e-03 -2.73342989e-03 -3.02874367e-03
      1.19433440e-02 -2.88927509e-03 -2.42446829e-03 -1.24594197e-03
      -1.99241517e-03 -1.60867127e-03 -2.03799503e-03 -1.99241517e-03
      -2.73342989e-03 3.79381818e-04 -1.44190807e-03 -2.02980661e-03
      1.23605840e-01 1.19081675e-03 -2.87835719e-03 -2.81913020e-03
      -1.52214966e-03 -1.87669066e-03 -9.74096241e-04 -2.33603851e-03
      1.28743518e-03 1.43509207e-03 2.51018442e-03 -2.56666634e-03
      -2.17746361e-03 -1.65615941e-03 -3.00144916e-03 -1.04451680e-03
      -6.70593930e-04 -2.37342971e-03 -1.59502402e-03 -3.36417835e-03
      -2.57485500e-03 -2.19656993e-03 -1.83629431e-03 -1.01967610e-03
      -2.89746351e-03 -6.78782293e-04 1.59093738e-03 -2.58577266e-03
      4.08935286e-02 -1.29971001e-03 -3.13627999e-03 -2.58577266e-03
      -1.58956507e-03 1.55278012e-01 -2.37615919e-03 -1.64606259e-03
      1.23912585e-03 -1.37995160e-03 -2.97688390e-03 -3.32951662e-03
      -2.44630408e-03 -1.24321249e-03 -1.64606259e-03 -2.47823657e-03
      -1.59229455e-03 -1.63787417e-03 -1.62422692e-03 8.95502686e-04
      -2.74161808e-03 -5.04845334e-03 -5.26713557e-05 -2.12915428e-03
      -1.70256011e-03 -1.33164239e-03 -1.95966172e-03 -2.65782606e-03
      2.27946825e-02 8.53820797e-03 2.97198584e-03 2.02239137e-02
      6.87003415e-03 -3.47717362e-03 -2.47277762e-03 3.92834842e-03
      -2.35787407e-03 -2.29318812e-03 1.30108232e-03 -1.63787417e-03
      -2.78719794e-03 -2.52927514e-03 -1.73449260e-03 -4.00857441e-03
      -2.98862299e-03 -2.65782606e-03 -2.19656993e-03 1.29562337e-03
      -3.31314001e-03 -4.14258428e-03 -2.08630413e-03 2.31940136e-03
      -1.10810599e-03 -1.18944433e-03 -1.04724627e-03 -1.47929939e-03
      -8.50183365e-04 -2.95314007e-03 1.75224175e-03 -1.39359897e-03
      -1.48748781e-03 -4.17260826e-03 -1.67526561e-03 -2.18838127e-03
      -1.85840554e-03 -4.66439407e-04 -6.90481393e-05 7.44265271e-03
      -4.96463384e-04 -1.29152159e-03 3.94609757e-03 -2.72442028e-03
      -2.16927519e-03 -2.24214955e-03 -1.58956507e-03 -1.78007223e-03
      -1.60867127e-03 -2.85652140e-03 -2.06801901e-03 -3.27574834e-03
      -9.56086849e-04 -1.04451680e-03 -1.89033803e-03 -2.09176308e-03
      -3.43896123e-03 -1.34528964e-03 -1.91954104e-03 -2.55301921e-03
      -2.32239114e-03 3.20154737e-04 -2.52927514e-03 -2.08903360e-03
      -2.33603851e-03 5.40437759e-05 -1.03359902e-03 -2.24487903e-03
      1.52652722e-03 -2.93212524e-03 1.91879692e-04 -2.57485500e-03
      -3.76156997e-03 -1.54671480e-03 -3.53367114e-03 -1.95775321e-03
      -1.83656986e-03 -1.45282596e-03 -2.25306721e-03 -3.76429921e-03
      9.95118916e-03 -2.91929906e-03 -2.33876798e-03 -2.33330904e-03
      -2.77900929e-03 -1.64060364e-03 -2.17746361e-03 -1.51368568e-03
      -2.02434766e-03 -4.12975810e-03 -2.72797095e-03 -1.57727487e-03
      -2.98043451e-04 -2.12369557e-03 -1.00166653e-03 -3.00963735e-03
      7.02265999e-04 -2.68512056e-03 -8.45821167e-04 -2.24487903e-03
      -2.39253603e-03 -2.01070029e-03 -3.19277751e-03 -1.95229449e-03
      -2.38980656e-03 -2.77900929e-03 -3.16548278e-03 -2.89272866e-05
      -1.55490323e-03 -1.43644912e-03 -2.63954070e-03 -3.21925106e-03
      -1.72630418e-03 -1.49021728e-03 -1.78007223e-03 -1.65425101e-03
      1.23093755e-03 -1.81445852e-03 -2.50007212e-03 -1.62695639e-03
      7.58793904e-05 -1.57864729e-03 -1.99787412e-03 -1.57591770e-03
      -2.89473403e-03 -1.49021728e-03 8.76120874e-04 6.08780235e-03
      -1.92499976e-03 6.54987944e-03 -1.22816244e-04 -2.34313030e-03
      -1.53033808e-03 -1.28606264e-03 -1.98695622e-03 -2.72251200e-03
      -2.95314007e-04 -1.73722208e-03 -2.62589357e-03 -2.32239114e-03
      1.65406149e-04 -2.87835719e-03 1.16161373e-03 -1.50113506e-03
      -3.54731828e-03 -2.34683976e-05 -1.29425107e-03 -2.18565203e-03
      -2.99408194e-03 -1.89033803e-03 -1.74268102e-03 -2.86471006e-03
      -1.69983075e-03 -8.94130324e-04 -2.79265665e-03 -2.04072427e-03
      -1.14113512e-03 -2.05787248e-04 -2.56475806e-03 -1.94956502e-03
      -2.28772918e-03 -2.41355062e-03 8.92773329e-04 -7.46473321e-04
      -2.17473414e-03 -2.86743930e-03 -2.08520750e-03 2.47690883e-02
      -3.01782601e-03 -2.63681123e-03 1.88625138e-03 -2.09176308e-03
      -1.63514481e-03 -2.73070019e-03 -2.24214955e-03 -4.71898296e-04
      -6.87246327e-04 -1.45527965e-03 -3.59562761e-03 -2.77900929e-03
      -2.42173905e-03 -1.24594197e-03 2.45731231e-02 -1.82565209e-03
      -2.77355034e-03 -1.55763258e-03 2.15320885e-02 -1.68072456e-03
      -2.67743773e-04 -1.59229455e-03 -1.63514481e-03 -2.03253608e-03
      -1.29425107e-03 -2.22850218e-03 -1.64060364e-03 -2.07811571e-03
      -2.11550714e-03 -2.24214955e-03 -2.47823657e-03 -1.98422675e-03
      -1.79099012e-03 7.50575215e-04 -2.07811571e-03 -1.09009654e-03
      -2.26043467e-03 -2.19274359e-03 -2.02707713e-03 -2.33057933e-03
      -3.72550450e-04 -1.48202898e-03 -2.69057928e-03 -1.33164239e-03
      -2.20939610e-03 -1.85021712e-03 -4.77357185e-04 -4.88550693e-04
      -1.91408198e-03 -2.01343000e-03 -2.66874372e-03 -1.98149728e-03
      -7.69941718e-04 -5.49410528e-04 -1.98422675e-03 1.74132385e-03
      -1.83656986e-03 -3.01236706e-03 -2.24214955e-03 -1.57864729e-03
      -1.61303347e-03 -2.01070029e-03 -1.20855053e-03 -2.98316404e-03
      -1.43917860e-03 -1.58137665e-03 -2.80548283e-03 -2.07811571e-03
      -1.62968598e-03 4.56182659e-03 -2.71978229e-03 -1.93864712e-03
      -2.16927519e-03 -2.02980661e-03 -1.47657003e-03 -2.74079712e-03
      -1.06908195e-03 -1.48748781e-03 5.01818443e-03 -3.95753607e-03
      -2.73888861e-03 -2.94304313e-03 -2.02434766e-03 -3.45533807e-03
      -2.23669061e-03 -2.27954099e-03 -3.67041025e-03 -2.97224615e-03
      -2.20120768e-03 -1.73995155e-03 -1.38814002e-03 -2.12642504e-03
      -4.20454051e-03 -3.72550450e-04 -1.98695622e-03 -2.72606243e-03
      -1.93045870e-03 -2.25033797e-03 2.80846972e-02 -9.46801680e-04
      2.61198590e-03 -1.80190802e-03 -1.78280182e-03 -8.69289623e-04
      7.04205013e-05 -1.83111092e-03 -1.33983081e-03 2.23806291e-03
      3.90181467e-02 -2.04891292e-03 -9.96207586e-04 -2.89473403e-03
      -1.38268108e-03 -2.74707703e-03 -9.07777692e-04 -8.45821167e-04
      1.22236386e-02 -1.33983081e-03 -8.77477927e-04 -1.38541055e-03
      -2.42446829e-03 -1.40997570e-03 -2.76809162e-03 1.94274902e-03
      -1.54125597e-03 -1.28606264e-03 -9.98937059e-04 -1.52760861e-03
      -2.42719799e-03 2.30848347e-03 -1.87942013e-03 1.52188924e-03
      -1.98422675e-03 1.77847017e-02 -1.84475828e-03 -2.71978229e-03
      -2.26589362e-03 -1.42826070e-03 -2.58850213e-03 -2.66410597e-03
      -1.09282602e-03 -2.68785004e-03 -3.13082105e-03 6.09599054e-03
      1.26369111e-03 -2.78173899e-03 2.13871524e-03 -1.58137665e-03
      -1.04178733e-03 -1.72903365e-03 -3.62946838e-03 -2.26589362e-03
      -1.19763275e-03 -2.82458914e-03 -2.54292227e-03 -1.33710145e-03
      2.32486031e-03 -5.33854763e-04 -3.89094185e-03 7.51443021e-03
      -1.55490323e-03 -2.93212524e-03 -2.00251210e-03 -2.23942008e-03
      -2.03526532e-03 6.65769121e-03 -4.71898296e-04 2.14704163e-02
      -7.64482887e-04 2.43402924e-03 -1.73722208e-03 3.21080210e-03
      -2.18019309e-03 -1.67526561e-03 -1.79313764e-04 -4.30934737e-03
      -1.14659406e-03 -4.63741506e-03 2.75702332e-05 -8.37632804e-04
      1.09446673e-02 -2.34149722e-03 -2.43265694e-03 8.92773329e-04
      -2.75171478e-03 1.59912580e-03 -1.68891286e-03 1.64743501e-03
      1.79509202e-03 1.05082348e-04 -2.61770515e-03 -8.02970899e-04
      3.57586541e-05 -2.37615919e-03 -1.97330909e-03 -3.21106263e-03
      -2.05710111e-03 -1.23775355e-03 -3.72144906e-03 1.59093738e-03
      -6.67864457e-04 -4.35219798e-03 1.28470571e-03 -1.50850241e-03
      -2.96405796e-03 -2.22850218e-03 -3.88927234e-04 -2.38161813e-03
      -1.54944416e-03 -1.10647327e-03 -2.02980661e-03 -2.01152149e-03
      -2.32785009e-03 -2.96405796e-03 -3.28393700e-03 -1.64333312e-03
      1.93818705e-05 -1.54125597e-03 8.05674959e-03 -1.73176313e-03
      -6.49855006e-04 -2.52927514e-03 6.49611140e-03 -9.68637411e-04
      -2.50826054e-03 -1.33710145e-03 -2.18838127e-03 6.99536642e-04
      -3.25664226e-03 -6.95434748e-04 -2.92666629e-03 -1.38268108e-03
      -2.37888866e-03 -2.97770509e-03 -9.12139774e-04 1.63288713e-02
      -2.52927514e-03 -9.79555189e-04 -1.58410612e-03 -2.59123161e-03
      3.01420745e-02 -2.77900929e-03 -8.54248647e-05 -2.57485500e-03
      -1.75086933e-03 -2.03799503e-03 -1.27514487e-03 -1.58137665e-03
      -2.35787407e-03 -1.65152154e-03 -1.53852650e-03 -2.51207734e-03
      -1.79371960e-03 -2.27681128e-03 -1.19217380e-03 -2.87835719e-03
      -1.30134274e-03 -1.13567617e-03 -3.41985491e-03 -1.83384051e-03
      -2.37342971e-03 -1.31799513e-03 -7.10714667e-04 1.26918021e-04
      -1.34801911e-03 -1.68345403e-03 -1.74268102e-03 -1.19763275e-03
      -2.43265694e-03 -2.02434766e-03 2.47884709e-02 -4.02768096e-03
      -2.29864707e-03 -4.09973413e-03 1.72849577e-02 -1.11356494e-03
      -5.89531206e-04 -1.72630418e-03 2.83718240e-02 -1.89579686e-03
      -2.34968564e-03 -1.84475828e-03 -3.49900918e-03 -1.33164239e-03
      6.44234335e-03 1.01638073e-02 -1.63241534e-03 2.71823779e-02
      -5.54007711e-05 -1.33983081e-03 -3.18731857e-03 -1.08899979e-03
      -2.68512056e-03 -1.03905785e-03 -1.34801911e-03 -1.78280182e-03
      -2.87535205e-03 -1.86304329e-03 -2.83277733e-03 -1.62149756e-03
      -1.28275133e-04 -1.15914468e-03 -2.41355062e-03 -2.97497562e-03
      -6.38937170e-04 -8.48550582e-04 -1.53852650e-03 -1.89852645e-03
      -1.14386459e-03 -1.10647327e-03 -1.49567612e-03 -6.98164164e-04
      -1.73995155e-03 -4.30956454e-04 1.20992295e-03 -1.28060370e-03
      -2.03253608e-03 -3.02055525e-03 -3.03229433e-03 3.41495685e-03
      -1.93045870e-03 -1.00985495e-03 5.75347920e-04 -2.14007217e-03
      -1.14113512e-03 -1.39086950e-03 -1.38268108e-03 -2.06446857e-03
      -1.69983075e-03 7.47845741e-04 -2.99954088e-03 -1.73449260e-03
      -1.88487908e-03 -1.68345403e-03 8.87314265e-04 -2.57130433e-03
      -2.61770515e-03 -2.02980661e-03 -2.02161819e-03 -1.72084523e-03
      -2.66874372e-03 -3.83089343e-03 2.75691343e-03 -1.34528964e-03
      -1.48475834e-03 -1.82838156e-03 3.21926619e-03 -1.14659406e-03
      -2.27954099e-03 -1.84475828e-03 -6.59676036e-04 4.92652529e-04
      -4.80086717e-04 2.21113442e-05 4.39469586e-05 -1.78280182e-03
      -2.69876793e-03 -1.04178733e-03 1.12253375e-01 -1.93864712e-03
      5.74144954e-03 -1.19217380e-03 -1.50932348e-03 -1.54944416e-03
      -3.55468574e-03 1.74951227e-03 -1.19763275e-03 -1.08463760e-03
      -2.13975669e-04 -3.16052930e-04 -2.68321228e-03 -1.58956507e-03
      -1.32345408e-03 -1.99787412e-03 3.51605453e-02 -1.67253613e-03
      1.09692779e-03 -2.76809162e-03 -2.09449255e-03 -1.09009654e-03
      -1.59229455e-03 -2.33330904e-03 1.18592763e-02 -2.55384040e-03
      3.20154737e-04 -1.33710145e-03 4.18081181e-03 -2.43265694e-03
      4.79005219e-04 -9.47898428e-04 -2.83823628e-03 -3.78009456e-04
      1.29835284e-03 -2.14553112e-03 -2.07265699e-03 -1.58410612e-03
      -1.89033803e-03 -7.86594115e-04 -1.66434771e-03 1.00849778e-03
      -2.02789833e-03 -1.18944433e-03 -1.79644907e-03 -2.82731862e-03
      -1.15641521e-03 -2.74707703e-03 -9.47898428e-04 -9.82560334e-04
      6.59683160e-03 -2.13734270e-03 -8.43091751e-04 -2.23942008e-03
      -2.37888866e-03 -2.32239114e-03 8.16893880e-04 -1.93318818e-03
      2.73043988e-03 -2.70422688e-03 1.08674308e-02 -4.64478228e-03
      4.12431452e-03 -2.67420290e-03 -2.43538618e-03 -1.60785019e-03
      -2.41900957e-03 -2.45449250e-03 -1.68891286e-03 -1.64606259e-03
      -1.43917860e-03 -1.53579703e-03 -2.48915423e-03 -1.00166653e-03
      -1.53579703e-03 -3.72690777e-03 3.08700954e-04 -1.78007223e-03
      -1.53852650e-03 -1.65666512e-04 -8.61922279e-04 -2.13734270e-03
      -1.75086933e-03 -2.02980661e-03 -2.01343000e-03 -1.68618350e-03
      -2.50280160e-03 -1.98695622e-03 -2.59669032e-03 -2.22577271e-03
      -1.52487913e-03 -2.28772918e-03 -1.73722208e-03 1.93818705e-05
      -1.69164233e-03 1.19354622e-03 -2.23123166e-03 -1.47384044e-03
      -4.41874261e-04 -2.17473414e-03 -1.98695622e-03 -2.95669050e-03
      -2.03799503e-03 -1.85840554e-03 1.63924659e-03 2.50717904e-03
      -2.43811589e-03 2.30138563e-02 -2.09176308e-03 -1.97330909e-03
      7.93425424e-04 1.18729658e-04 1.59366685e-03 -1.92499976e-03
      2.62127095e-03 -2.91574863e-03 -2.93212524e-03 -1.73995155e-03
      3.02996486e-05 6.49884110e-03 4.78729606e-04 -2.52381619e-03
      -1.18125603e-03 1.35485036e-03 -7.06352526e-04 -1.82101422e-03
      -1.53852650e-03 6.16565521e-04 2.71916632e-02 4.98111476e-04
      -1.40178727e-03 -5.12019091e-04 -1.57591770e-03 -1.92772935e-03
      -1.72903365e-03 -9.12139774e-04 -3.32132820e-03 -2.33603851e-03
      2.34454230e-04 -3.48263257e-03 -1.87942013e-03 -2.89473403e-03
      3.10053653e-03 4.23185062e-03 4.22912091e-03 -1.56036206e-03
      -2.86826049e-03 -2.06992752e-03 -1.83656986e-03 -2.47550709e-03
      -2.14826060e-03 3.79657373e-04 -2.02161819e-03 -2.04345398e-03
      -1.88760855e-03 -1.44463754e-03 -1.04178733e-03 -1.77734287e-03
      -1.47657003e-03 -2.87835719e-03 -2.00060359e-03 -1.38814002e-03
      -1.84475828e-03 -2.30410602e-03 -2.93212524e-03 4.40879539e-02
      -1.53306755e-03 -1.99787412e-03 -1.93591765e-03 -1.13840564e-03
      -1.51205296e-03 -1.18671486e-03 -3.55004799e-03 -1.83656986e-03
      -2.07811571e-03 -1.87669066e-03 -1.38814002e-03 -5.06560144e-04
      -3.46898520e-03 -8.23985494e-04 9.23414454e-02 -2.44084513e-03
      4.22912091e-03 -2.28499994e-03 7.22457515e-03 -1.05706730e-03
      -3.09533789e-03 -3.38328467e-03 -2.18292256e-03 -3.58470995e-03
      -1.84748764e-03 3.45780700e-03 -5.10386380e-05 -1.28606264e-03
      -2.73202662e-04 1.38951233e-03 3.84880695e-05 -1.43371965e-03
      -2.35432363e-03 4.49250266e-03 -1.72084523e-03 -2.51016882e-03
      -1.09009654e-03 -1.99514464e-03 -9.82560334e-04 -1.67253613e-03
      -1.44463754e-03 -2.42992723e-03 -1.93591765e-03 -1.99241517e-03
      -7.45070283e-05 -2.16654572e-03 -1.85021712e-03 -2.27408204e-03
      -2.23942008e-03 -8.85941961e-04 -3.42340558e-03 -2.54483102e-03
      -5.26713557e-05 -2.45449250e-03 -2.24214955e-03 -4.91280167e-04
      -1.63241534e-03 -3.17830918e-03 -2.07389821e-05 -1.66161836e-03
      -3.12809134e-03 -3.70043423e-03 -1.33710145e-03 -1.16297079e-03
      -1.77188392e-03 -1.73449260e-03 -7.00893637e-04 -4.40596603e-03
      1.95713304e-02 -2.15835730e-03 -2.58304318e-03 -1.88214961e-03
      -1.65666512e-04 -1.44736702e-03 -3.13900923e-03 2.34559923e-03
      4.02008258e-02 -1.48475834e-03 1.64470554e-03 -2.34695617e-03
      -3.14091775e-03 -2.35241512e-03 -1.22816244e-04 -3.02601419e-03
      -1.32618356e-03 -3.92287411e-03 -1.27787434e-03 -6.09734154e-04
      -1.21400948e-03 2.66386662e-04 7.23004923e-04 -2.13188399e-03
      -1.39086950e-03 4.78729606e-04 -9.50627960e-04 2.30097547e-02
      -1.74268102e-03 -1.44190807e-03 -2.19434558e-04 -1.09555549e-03
      -1.25413027e-03 -2.27408204e-03 -2.77900929e-03 -3.75884026e-03
      3.40403896e-03 2.86717899e-03 -4.59456444e-03 2.35548038e-02
      -1.98695622e-03 -5.82163979e-04 -1.87123171e-03 -8.91400909e-04
      -1.02240546e-03 -1.68345403e-03 -2.56748754e-03 -2.20939610e-03
      -1.24048302e-03 4.61832387e-03 1.80161502e-02 -2.23123166e-03
      -2.62043439e-03 -1.38541055e-03 -1.54944416e-03 -1.72084523e-03
      -1.33437186e-03 3.16386530e-03 -1.93591765e-03 1.09965727e-03
      -1.78553117e-03 -9.44072264e-04 -4.74627770e-04 -1.23201904e-03
      -1.27787434e-03 1.69896446e-02 -1.59502402e-03 -2.45176302e-03
      -2.24760850e-03 -7.72365020e-05 -7.16173672e-04 -1.94410607e-03
      -3.74246342e-03 1.09419832e-03 3.73922870e-04 -1.70256011e-03
      -6.89975801e-04 -1.79917854e-03 -1.09828496e-03 -3.27301910e-03
      1.90262822e-03 -4.64014430e-03 -1.09828496e-03 -2.40891287e-03
      -2.08630413e-03 -2.63954070e-03 -8.56739003e-04 -2.63135252e-03
      2.74045430e-02 -7.97512010e-04 -1.65666512e-04 -1.39632833e-03
      -1.91135262e-03 -8.45821167e-04 2.09040591e-03 2.54429481e-03
      -2.93212524e-03 -2.38707708e-03 -1.20309158e-03 -2.33057933e-03
      -1.17852655e-03 7.44838733e-03 -1.45282596e-03 -2.08793697e-03
      -2.88927509e-03 -1.77188392e-03 -4.15400777e-04 -1.53306755e-03
      -2.37615919e-03 -1.77188392e-03 -1.22410618e-03 8.67932453e-04
      -1.43917860e-03 -1.70256011e-03 -1.42826070e-03 -2.77628005e-03
      -1.14113512e-03 -1.47384044e-03 -1.47929939e-03 -2.32512061e-03
      -1.27486920e-03 -1.58410612e-03 -8.99589271e-04 -2.15371954e-03
      -2.31420272e-03 -3.95753607e-03 -1.50386454e-03 -3.59016890e-03
      -2.80002411e-03 -2.26043467e-03 -1.28333317e-03 2.41328813e-02
      -1.97057961e-03 -1.54125597e-03 -1.33734022e-04 1.40565331e-04
      -2.32785009e-03 7.13183836e-04 -2.87289824e-03 -1.58410612e-03
      -2.88845389e-03 -2.95859878e-03 -2.01343000e-03 -2.04345398e-03
      3.80688906e-03 -1.36712543e-03 -5.09289675e-04 -2.74980627e-03</_></support_vectors>
  <uncompressed_sv_total>4</uncompressed_sv_total>
  <uncompressed_support_vectors>
    <_>
      1.06280192e-03 7.24637706e-04 1.11111114e-03 1.11111114e-03
      9.17874393e-04 5.31400961e-04 1.69082126e-03 1.25603867e-03
      4.34782618e-04 3.38164245e-04 6.76328491e-04 8.21256021e-04
      1.73913047e-03 1.30434788e-03 1.06280192e-03 7.72946863e-04
      1.01449271e-03 8.21256021e-04 1.25603867e-03 7.72946863e-04
      1.83574879e-03 1.35265698e-03 1.30434788e-03 1.49758451e-03
      2.07729475e-03 1.25603867e-03 1.35265698e-03 5.31400961e-04
      8.69565236e-04 4.34782618e-04 9.66183608e-04 8.69565236e-04
      1.30434788e-03 5.79710118e-04 6.76328491e-04 1.11111114e-03
      2.80193239e-03 6.76328491e-04 1.44927541e-03 1.59420294e-03
      1.06280192e-03 1.11111114e-03 1.01449271e-03 1.11111114e-03
      5.79710118e-04 4.83091804e-04 9.17874393e-04 1.54589373e-03
      1.20772945e-03 1.40096620e-03 1.98067632e-03 4.83091804e-04
      9.66183608e-04 1.35265698e-03 6.76328491e-04 1.88405800e-03
      1.40096620e-03 8.69565236e-04 1.11111114e-03 1.11111114e-03
      1.11111114e-03 8.21256021e-04 5.31400961e-04 1.20772945e-03
      5.31400961e-04 4.83091804e-04 1.40096620e-03 1.20772945e-03
      7.72946863e-04 4.49275365e-03 1.30434788e-03 6.76328491e-04
      6.28019334e-04 8.69565236e-04 2.41545890e-03 1.59420294e-03
      9.66183608e-04 5.79710118e-04 6.76328491e-04 1.30434788e-03
      7.24637706e-04 8.21256021e-04 1.06280192e-03 8.69565236e-04
      1.15942024e-03 1.88405800e-03 1.06280192e-03 1.15942024e-03
      5.79710118e-04 8.21256021e-04 1.44927541e-03 1.73913047e-03
      1.93236716e-04 6.76328491e-04 7.72946863e-04 3.86473432e-04
      7.72946863e-04 1.69082126e-03 1.40096620e-03 7.24637706e-04
      7.24637706e-04 9.66183608e-04 8.21256021e-04 8.21256021e-04
      1.25603867e-03 1.30434788e-03 9.17874393e-04 2.22222228e-03
      1.30434788e-03 1.73913047e-03 8.69565236e-04 7.24637706e-04
      1.88405800e-03 2.56038643e-03 1.01449271e-03 9.66183608e-04
      1.35265698e-03 6.28019334e-04 4.34782618e-04 9.17874393e-04
      1.40096620e-03 1.93236722e-03 6.76328491e-04 6.28019334e-04
      7.72946863e-04 2.02898541e-03 1.06280192e-03 1.01449271e-03
      5.31400961e-04 9.66183608e-04 7.72946863e-04 1.15942024e-03
      4.34782618e-04 6.28019334e-04 2.31884047e-03 2.36714981e-03
      1.35265698e-03 9.66183608e-04 7.72946863e-04 1.01449271e-03
      4.34782618e-04 1.83574879e-03 4.34782618e-04 1.64251204e-03
      2.41545902e-04 4.83091804e-04 8.69565236e-04 9.17874393e-04
      2.36714981e-03 5.79710118e-04 1.25603867e-03 1.78743957e-03
      1.35265698e-03 4.34782618e-04 1.30434788e-03 9.66183608e-04
      1.11111114e-03 2.41545902e-04 6.76328491e-04 9.17874393e-04
      4.83091804e-04 1.40096620e-03 1.06280192e-03 1.40096620e-03
      2.07729475e-03 6.28019334e-04 1.59420294e-03 5.79710118e-04
      9.17874393e-04 4.83091804e-04 7.72946863e-04 2.02898541e-03
      5.79710118e-04 7.24637706e-04 1.06280192e-03 1.15942024e-03
      1.40096620e-03 7.72946863e-04 1.20772945e-03 1.40096620e-03
      1.20772945e-03 1.88405800e-03 1.40096620e-03 2.27053137e-03
      1.44927530e-04 1.25603867e-03 3.38164245e-04 1.83574879e-03
      1.06280192e-03 1.25603867e-03 3.86473432e-04 9.17874393e-04
      1.01449271e-03 1.44927541e-03 1.30434788e-03 6.76328491e-04
      1.06280192e-03 1.40096620e-03 1.78743957e-03 5.79710118e-04
      4.83091804e-04 7.72946863e-04 1.15942024e-03 1.73913047e-03
      1.06280192e-03 7.24637706e-04 1.01449271e-03 5.31400961e-04
      4.83091804e-04 1.49758451e-03 9.17874393e-04 1.01449271e-03
      6.28019334e-04 9.66183608e-04 7.72946863e-04 1.01449271e-03
      1.15942024e-03 7.24637706e-04 3.38164245e-04 2.89855059e-04
      1.15942024e-03 3.38164245e-04 7.24637706e-04 2.07729475e-03
      9.17874393e-04 7.24637706e-04 9.66183608e-04 1.49758451e-03
      1.93236716e-04 8.69565236e-04 1.40096620e-03 1.35265698e-03
      1.49758451e-03 1.44927541e-03 1.06280192e-03 5.31400961e-04
      1.35265698e-03 6.76328491e-04 5.79710118e-04 1.06280192e-03
      1.20772945e-03 8.69565236e-04 7.72946863e-04 1.69082126e-03
      6.28019334e-04 4.34782618e-04 1.15942024e-03 9.17874393e-04
      5.79710118e-04 1.06280192e-03 6.76328491e-04 7.24637706e-04
      1.06280192e-03 1.54589373e-03 8.21256021e-04 3.38164245e-04
      1.25603867e-03 1.64251204e-03 2.12560385e-03 9.66183579e-05
      1.69082126e-03 1.20772945e-03 3.38164245e-04 9.17874393e-04
      8.69565236e-04 1.35265698e-03 9.66183608e-04 8.69565236e-04
      4.83091804e-04 6.28019334e-04 1.40096620e-03 1.40096620e-03
      1.40096620e-03 5.31400961e-04 2.41545902e-04 1.11111114e-03
      1.49758451e-03 4.34782618e-04 2.41545902e-04 9.66183608e-04
      8.69565236e-04 7.24637706e-04 8.69565236e-04 1.06280192e-03
      5.79710118e-04 1.20772945e-03 7.72946863e-04 1.15942024e-03
      1.40096620e-03 9.66183608e-04 1.30434788e-03 1.01449271e-03
      8.21256021e-04 1.01449271e-03 1.15942024e-03 5.79710118e-04
      1.54589373e-03 2.02898541e-03 1.15942024e-03 1.20772945e-03
      8.21256021e-04 8.69565236e-04 1.15942024e-03 8.21256021e-04
      1.54589373e-03 6.76328491e-04 7.72946863e-04 3.86473432e-04
      1.35265698e-03 1.40096620e-03 1.54589373e-03 1.06280192e-03
      1.01449271e-03 1.30434788e-03 1.01449271e-03 4.83091804e-04
      9.17874393e-04 1.78743957e-03 9.66183608e-04 9.66183608e-04
      1.44927541e-03 1.44927541e-03 2.89855059e-04 1.40096620e-03
      7.24637706e-04 9.17874393e-04 1.83574879e-03 1.15942024e-03
      9.66183608e-04 1.93236716e-04 1.54589373e-03 9.17874393e-04
      1.35265698e-03 1.11111114e-03 9.66183608e-04 2.07729475e-03
      4.83091790e-05 7.72946863e-04 2.51207734e-03 2.22222228e-03
      1.20772945e-03 1.20772945e-03 1.20772945e-03 2.07729475e-03
      1.06280192e-03 1.20772945e-03 1.88405800e-03 1.59420294e-03
      1.69082126e-03 8.21256021e-04 7.24637706e-04 1.20772945e-03
      2.36714981e-03 8.21256021e-04 9.66183608e-04 5.31400961e-04
      1.06280192e-03 8.21256021e-04 6.28019334e-04 1.49758451e-03
      7.24637706e-04 6.28019334e-04 9.66183608e-04 1.06280192e-03
      5.31400961e-04 1.01449271e-03 6.76328491e-04 2.41545902e-04
      2.89855059e-04 7.72946863e-04 4.34782618e-04 1.15942024e-03
      8.21256021e-04 1.06280192e-03 1.93236716e-04 3.86473432e-04
      3.38164245e-04 6.76328491e-04 9.17874393e-04 7.72946863e-04
      1.35265698e-03 3.38164245e-04 1.59420294e-03 4.34782618e-04
      7.24637706e-04 7.24637706e-04 3.86473432e-04 9.66183608e-04
      1.30434788e-03 7.72946863e-04 1.06280192e-03 1.30434788e-03
      1.01449271e-03 3.86473432e-04 7.72946863e-04 1.54589373e-03
      1.44927541e-03 9.17874393e-04 1.15942024e-03 7.24637706e-04
      5.31400961e-04 1.20772945e-03 1.49758451e-03 4.34782618e-04
      1.06280192e-03 1.35265698e-03 2.89855059e-04 9.17874393e-04
      5.31400961e-04 1.01449271e-03 2.60869577e-03 1.44927541e-03
      4.83091804e-04 1.49758451e-03 1.06280192e-03 7.24637706e-04
      1.06280192e-03 6.76328491e-04 1.59420294e-03 4.34782618e-04
      4.83091804e-04 1.40096620e-03 1.59420294e-03 1.01449271e-03
      1.01449271e-03 6.28019334e-04 8.69565236e-04 3.14009655e-03
      1.11111114e-03 9.66183579e-05 8.69565236e-04 4.83091804e-04
      1.15942024e-03 1.06280192e-03 6.28019334e-04 2.31884047e-03
      4.83091804e-04 1.93236722e-03 6.76328491e-04 5.31400961e-04
      9.66183579e-05 1.01449271e-03 1.20772945e-03 8.21256021e-04
      1.88405800e-03 6.76328491e-04 8.21256021e-04 6.28019334e-04
      5.31400961e-04 2.41545902e-04 1.54589373e-03 2.41545902e-04
      8.21256021e-04 1.30434788e-03 1.20772945e-03 1.88405800e-03
      6.28019334e-04 6.76328491e-04 1.88405800e-03 5.31400961e-04
      1.01449271e-03 2.46376824e-03 5.31400961e-04 1.30434788e-03
      1.73913047e-03 1.20772945e-03 5.31400961e-04 1.20772945e-03
      5.79710118e-04 2.89855059e-04 1.11111114e-03 5.31400961e-04
      1.25603867e-03 1.73913047e-03 1.49758451e-03 7.24637706e-04
      5.31400961e-04 7.24637706e-04 9.66183579e-05 9.66183608e-04
      2.41545902e-04 1.30434788e-03 2.89855059e-04 1.11111114e-03
      7.72946863e-04 7.24637706e-04 1.01449271e-03 1.01449271e-03
      1.98067632e-03 3.38164245e-04 1.49758451e-03 8.21256021e-04
      1.25603867e-03 1.49758451e-03 1.20772945e-03 6.28019334e-04
      1.30434788e-03 9.17874393e-04 8.69565236e-04 1.11111114e-03
      1.93236716e-04 1.40096620e-03 4.83091804e-04 1.40096620e-03
      6.28019334e-04 9.66183608e-04 9.17874393e-04 9.17874393e-04
      7.24637706e-04 5.79710118e-04 7.72946863e-04 2.51207734e-03
      7.72946863e-04 1.25603867e-03 5.79710118e-04 1.44927541e-03
      1.54589373e-03 6.76328491e-04 2.70531396e-03 9.66183608e-04
      1.35265698e-03 1.06280192e-03 1.15942024e-03 6.28019334e-04
      5.31400961e-04 9.17874393e-04 7.72946863e-04 4.83091804e-04
      1.20772945e-03 1.20772945e-03 6.28019334e-04 1.88405800e-03
      8.69565236e-04 2.41545890e-03 3.86473432e-04 1.25603867e-03
      1.49758451e-03 1.06280192e-03 2.89855059e-04 7.72946863e-04
      8.69565236e-04 7.72946863e-04 1.30434788e-03 8.21256021e-04
      2.41545902e-04 9.17874393e-04 9.17874393e-04 9.17874393e-04
      1.01449271e-03 6.76328491e-04 1.40096620e-03 1.69082126e-03
      1.25603867e-03 5.79710118e-04 5.31400961e-04 9.66183608e-04
      1.69082126e-03 1.35265698e-03 1.35265698e-03 1.11111114e-03
      6.28019334e-04 1.35265698e-03 1.54589373e-03 1.54589373e-03
      4.34782618e-04 3.38164245e-04 7.72946863e-04 7.24637706e-04
      5.31400961e-04 2.89855059e-04 6.28019334e-04 2.89855059e-04
      8.21256021e-04 1.59420294e-03 1.01449271e-03 8.21256021e-04
      1.06280192e-03 1.64251204e-03 5.31400961e-04 4.83091804e-04
      1.06280192e-03 1.93236716e-04 4.34782618e-04 9.66183608e-04
      5.79710118e-04 6.76328491e-04 8.21256021e-04 1.40096620e-03
      6.28019334e-04 9.66183608e-04 1.11111114e-03 9.17874393e-04
      9.66183608e-04 9.17874393e-04 7.24637706e-04 2.36714981e-03
      1.54589373e-03 1.11111114e-03 1.25603867e-03 1.15942024e-03
      1.54589373e-03 2.65700486e-03 5.79710118e-04 5.79710118e-04
      8.21256021e-04 1.06280192e-03 8.21256021e-04 4.83091804e-04
      1.20772945e-03 7.72946863e-04 1.15942024e-03 9.66183608e-04
      7.24637706e-04 5.79710118e-04 9.66183608e-04 9.66183608e-04
      1.01449271e-03 5.31400961e-04 4.83091804e-04 9.17874393e-04
      4.83091804e-04 5.79710118e-04 3.86473432e-04 5.79710118e-04
      2.12560385e-03 6.28019334e-04 4.83091804e-04 6.76328491e-04
      9.17874393e-04 9.17874393e-04 3.86473432e-04 7.72946863e-04
      9.66183608e-04 7.72946863e-04 3.86473432e-04 1.11111114e-03
      8.21256021e-04 1.59420294e-03 8.69565236e-04 5.79710118e-04
      7.24637706e-04 1.15942024e-03 1.30434788e-03 8.69565236e-04
      4.34782618e-04 7.24637706e-04 6.76328491e-04 1.20772945e-03
      7.24637706e-04 3.86473432e-04 1.25603867e-03 7.24637706e-04
      7.72946863e-04 8.69565236e-04 1.25603867e-03 8.69565236e-04
      8.69565236e-04 5.31400961e-04 1.25603867e-03 1.06280192e-03
      2.41545902e-04 6.28019334e-04 7.24637706e-04 1.44927541e-03
      1.40096620e-03 1.06280192e-03 3.86473432e-04 6.76328491e-04
      1.54589373e-03 1.01449271e-03 4.34782618e-04 1.01449271e-03
      1.25603867e-03 1.35265698e-03 1.93236716e-04 1.01449271e-03
      1.01449271e-03 9.17874393e-04 7.24637706e-04 2.70531396e-03
      5.79710118e-04 1.44927541e-03 1.15942024e-03 1.35265698e-03
      1.44927541e-03 8.21256021e-04 8.21256021e-04 6.76328491e-04
      7.24637706e-04 8.21256021e-04 1.11111114e-03 3.38164245e-04
      8.21256021e-04 1.78743957e-03 2.41545890e-03 1.01449271e-03
      7.72946863e-04 8.69565236e-04 2.89855059e-04 1.01449271e-03
      6.28019334e-04 1.11111114e-03 1.40096620e-03 8.69565236e-04
      8.69565236e-04 9.66183608e-04 1.01449271e-03 1.25603867e-03
      1.01449271e-03 1.06280192e-03 8.69565236e-04 5.31400961e-04
      7.72946863e-04 7.24637706e-04 1.15942024e-03 1.01449271e-03
      1.40096620e-03 1.25603867e-03 9.66183608e-04 9.66183608e-04
      9.66183608e-04 5.31400961e-04 4.83091804e-04 6.76328491e-04
      1.11111114e-03 1.73913047e-03 9.17874393e-04 1.20772945e-03
      8.69565236e-04 4.83091804e-04 5.79710118e-04 1.15942024e-03
      1.98067632e-03 1.69082126e-03 1.40096620e-03 8.21256021e-04
      7.24637706e-04 3.38164245e-04 5.31400961e-04 1.40096620e-03
      7.72946863e-04 8.69565236e-04 1.44927530e-04 2.89855059e-04
      7.72946863e-04 1.35265698e-03 2.17391294e-03 1.06280192e-03
      4.83091804e-04 1.06280192e-03 1.01449271e-03 1.11111114e-03
      1.01449271e-03 1.20772945e-03 1.73913047e-03 1.11111114e-03
      7.24637706e-04 1.59420294e-03 1.06280192e-03 1.15942024e-03
      3.38164245e-04 6.76328491e-04 6.28019334e-04 3.86473432e-04
      7.24637706e-04 1.30434788e-03 9.17874393e-04 1.35265698e-03
      8.21256021e-04 7.72946863e-04 1.25603867e-03 8.69565236e-04
      9.17874393e-04 6.28019334e-04 5.31400961e-04 1.06280192e-03
      9.66183608e-04 1.44927541e-03 7.24637706e-04 7.24637706e-04
      7.72946863e-04 7.72946863e-04 1.40096620e-03 7.24637706e-04
      8.69565236e-04 7.72946863e-04 9.66183608e-04 6.28019334e-04
      3.38164245e-04 6.76328491e-04 1.30434788e-03 9.17874393e-04
      1.15942024e-03 1.11111114e-03 7.24637706e-04 1.15942024e-03
      1.83574879e-03 7.72946863e-04 4.34782618e-04 1.06280192e-03
      6.28019334e-04 1.11111114e-03 7.24637706e-04 1.35265698e-03
      2.12560385e-03 1.54589373e-03 1.11111114e-03 1.59420294e-03
      7.24637706e-04 3.38164245e-04 0. 7.24637706e-04 7.72946863e-04
      5.79710118e-04 8.69565236e-04 8.21256021e-04 1.69082126e-03
      7.72946863e-04 1.15942024e-03 1.64251204e-03 5.79710118e-04
      8.21256021e-04 6.76328491e-04 1.11111114e-03 6.28019334e-04
      1.25603867e-03 9.66183608e-04 8.69565236e-04 6.76328491e-04
      1.40096620e-03 6.76328491e-04 1.30434788e-03 1.01449271e-03
      5.79710118e-04 1.73913047e-03 1.93236722e-03 1.06280192e-03
      8.21256021e-04 9.66183608e-04 3.38164245e-04 9.17874393e-04
      2.46376824e-03 7.24637706e-04 1.30434788e-03 1.54589373e-03
      1.35265698e-03 7.24637706e-04 1.93236716e-04 1.15942024e-03
      9.17874393e-04 2.41545902e-04 2.41545890e-03 5.79710118e-04
      1.54589373e-03 1.25603867e-03 1.01449271e-03 8.69565236e-04
      5.79710118e-04 1.35265698e-03 3.38164245e-04 9.17874393e-04
      8.21256021e-04 5.79710118e-04 9.17874393e-04 2.22222228e-03
      8.21256021e-04 7.24637706e-04 1.54589373e-03 9.17874393e-04
      1.93236722e-03 8.69565236e-04 4.83091790e-05 1.93236716e-04
      3.86473432e-04 3.38164245e-04 1.11111114e-03 6.76328491e-04
      5.31400961e-04 3.38164245e-04 3.86473432e-04 7.72946863e-04
      6.76328491e-04 8.21256021e-04 4.83091804e-04 3.86473432e-04
      1.30434788e-03 1.40096620e-03 2.12560385e-03 2.89855059e-04
      7.24637706e-04 1.78743957e-03 9.66183579e-05 9.66183608e-04
      7.24637706e-04 1.20772945e-03 4.83091804e-04 1.06280192e-03
      9.17874393e-04 6.28019334e-04 1.54589373e-03 6.28019334e-04
      2.89855059e-04 8.69565236e-04 1.15942024e-03 1.49758451e-03
      7.72946863e-04 5.79710118e-04 1.15942024e-03 7.72946863e-04
      1.83574879e-03 9.66183608e-04 8.69565236e-04 9.17874393e-04
      1.54589373e-03 8.21256021e-04 9.66183608e-04 8.69565236e-04
      5.79710118e-04 6.76328491e-04 8.69565236e-04 8.69565236e-04
      6.28019334e-04 1.06280192e-03 8.21256021e-04 2.41545890e-03
      7.72946863e-04 4.83091804e-04 5.79710118e-04 4.34782618e-04
      6.76328491e-04 4.34782618e-04 1.69082126e-03 6.28019334e-04
      1.88405800e-03 4.34782618e-04 7.24637706e-04 1.01449271e-03
      1.15942024e-03 1.93236716e-04 1.30434788e-03 1.44927530e-04
      3.38164245e-04 8.69565236e-04 5.79710118e-04 1.40096620e-03
      3.86473432e-04 3.38164245e-04 2.41545902e-04 1.40096620e-03
      1.11111114e-03 3.86473432e-04 1.20772945e-03 8.21256021e-04
      1.44927541e-03 4.83091804e-04 2.07729475e-03 1.25603867e-03
      1.15942024e-03 9.66183608e-04 8.69565236e-04 1.30434788e-03
      1.15942024e-03 9.17874393e-04 1.93236716e-04 7.24637706e-04
      5.79710118e-04 9.17874393e-04 1.44927541e-03 5.79710118e-04
      1.01449271e-03 9.17874393e-04 1.30434788e-03 1.11111114e-03
      8.69565236e-04 3.38164245e-04 7.24637706e-04 1.49758451e-03
      2.22222228e-03 4.83091804e-04 1.49758451e-03 1.93236722e-03
      1.54589373e-03 7.72946863e-04 5.79710118e-04 1.25603867e-03
      7.24637706e-04 5.31400961e-04 8.69565236e-04 1.25603867e-03
      1.25603867e-03 1.54589373e-03 8.69565236e-04 2.17391294e-03
      1.83574879e-03 1.40096620e-03 8.69565236e-04 1.93236716e-04
      1.93236716e-04 1.11111114e-03 1.01449271e-03</_>
    <_>
      4.08309104e-04 1.17388868e-03 7.65579578e-04 4.59347735e-04
      9.18695470e-04 7.14540947e-04 1.37804321e-03 1.17388868e-03
      9.69734101e-04 6.63502316e-04 1.17388868e-03 6.63502316e-04
      1.07181142e-03 9.18695470e-04 6.12463686e-04 9.69734101e-04
      6.12463686e-04 1.68427511e-03 4.59347735e-04 8.67656840e-04
      7.14540947e-04 8.67656840e-04 1.42908189e-03 1.53115916e-03
      1.58219773e-03 1.63323642e-03 1.07181142e-03 7.14540947e-04
      1.12284999e-03 1.17388868e-03 1.07181142e-03 1.12284999e-03
      1.42908189e-03 4.59347735e-04 7.65579578e-04 9.18695470e-04
      1.12284999e-03 9.69734101e-04 1.42908189e-03 1.22492737e-03
      4.59347735e-04 7.65579578e-04 1.37804321e-03 1.22492737e-03
      9.69734101e-04 9.18695470e-04 2.24569999e-03 1.02077273e-03
      9.69734101e-04 2.55193183e-04 1.02077273e-03 5.61424997e-04
      1.12284999e-03 1.02077273e-03 9.18695470e-04 1.48012047e-03
      1.17388868e-03 1.32700463e-03 2.14362284e-03 1.32700463e-03
      1.78635237e-03 1.27596594e-03 7.14540947e-04 1.37804321e-03
      6.12463686e-04 8.16618209e-04 1.73531368e-03 1.37804321e-03
      8.16618209e-04 2.70504784e-03 1.07181142e-03 9.69734101e-04
      9.69734101e-04 5.10386366e-04 5.61424997e-04 1.73531368e-03
      1.48012047e-03 6.63502316e-04 9.69734101e-04 1.17388868e-03
      8.67656840e-04 8.16618209e-04 5.61424997e-04 1.07181142e-03
      1.58219773e-03 3.16439546e-03 4.08309104e-04 9.69734101e-04
      1.12284999e-03 5.10386366e-04 5.10386366e-04 9.18695470e-04
      8.67656840e-04 7.14540947e-04 5.10386366e-04 4.08309104e-04
      8.67656840e-04 1.78635237e-03 1.07181142e-03 1.02077273e-03
      1.63323642e-03 1.32700463e-03 7.14540947e-04 8.16618209e-04
      1.53115916e-03 1.22492737e-03 8.16618209e-04 1.78635237e-03
      1.68427511e-03 9.18695470e-04 1.32700463e-03 8.16618209e-04
      1.42908189e-03 1.58219773e-03 1.07181142e-03 9.69734101e-04
      1.17388868e-03 5.61424997e-04 6.12463686e-04 5.61424997e-04
      8.67656840e-04 1.02077273e-03 4.08309104e-04 7.65579578e-04
      7.14540947e-04 2.14362284e-03 6.12463686e-04 1.17388868e-03
      1.32700463e-03 9.18695470e-04 7.14540947e-04 1.32700463e-03
      1.48012047e-03 6.63502316e-04 2.24569999e-03 3.57270474e-04
      8.16618209e-04 1.27596594e-03 8.16618209e-04 7.65579578e-04
      1.17388868e-03 1.02077273e-03 1.63323642e-03 1.63323642e-03
      7.14540947e-04 5.61424997e-04 1.02077273e-03 1.17388868e-03
      1.07181142e-03 7.65579578e-04 6.63502316e-04 7.65579578e-04
      9.69734101e-04 6.63502316e-04 1.22492737e-03 1.12284999e-03
      1.22492737e-03 1.12284999e-03 3.57270474e-04 1.32700463e-03
      2.24569999e-03 1.53115916e-03 1.58219773e-03 1.17388868e-03
      1.68427511e-03 9.18695470e-04 1.93946820e-03 1.37804321e-03
      9.18695470e-04 9.69734101e-04 1.48012047e-03 1.73531368e-03
      8.16618209e-04 2.19466141e-03 1.27596594e-03 1.17388868e-03
      1.37804321e-03 8.67656840e-04 9.69734101e-04 1.53115916e-03
      8.16618209e-04 2.24569999e-03 1.32700463e-03 2.14362284e-03
      1.53115921e-04 8.67656840e-04 6.63502316e-04 1.17388868e-03
      1.07181142e-03 1.42908189e-03 4.59347735e-04 1.32700463e-03
      1.37804321e-03 5.61424997e-04 1.88842963e-03 1.27596594e-03
      1.32700463e-03 1.37804321e-03 1.37804321e-03 8.67656840e-04
      1.07181142e-03 6.63502316e-04 1.48012047e-03 1.48012047e-03
      6.63502316e-04 7.65579578e-04 7.65579578e-04 1.12284999e-03
      1.12284999e-03 1.73531368e-03 1.58219773e-03 6.12463686e-04
      7.14540947e-04 6.12463686e-04 1.22492737e-03 5.61424997e-04
      1.73531368e-03 7.65579578e-04 2.04154552e-04 7.14540947e-04
      7.65579578e-04 2.04154552e-04 8.16618209e-04 1.68427511e-03
      6.12463686e-04 5.61424997e-04 1.02077273e-03 1.22492737e-03
      1.02077276e-04 8.67656840e-04 1.22492737e-03 9.69734101e-04
      1.17388868e-03 1.42908189e-03 6.12463686e-04 9.69734101e-04
      2.19466141e-03 7.65579578e-04 7.14540947e-04 1.12284999e-03
      1.78635237e-03 1.02077273e-03 9.69734101e-04 1.17388868e-03
      1.07181142e-03 4.59347735e-04 1.63323642e-03 1.12284999e-03
      5.61424997e-04 5.61424997e-04 1.88842963e-03 1.22492737e-03
      1.22492737e-03 8.67656840e-04 1.12284999e-03 4.08309104e-04
      9.18695470e-04 1.22492737e-03 1.37804321e-03 4.08309104e-04
      1.32700463e-03 1.42908189e-03 6.12463686e-04 1.17388868e-03
      7.65579578e-04 1.37804321e-03 1.27596594e-03 1.02077273e-03
      2.04154552e-04 2.24569999e-03 2.19466141e-03 1.37804321e-03
      1.02077273e-03 7.14540947e-04 4.59347735e-04 7.14540947e-04
      1.27596594e-03 1.12284999e-03 6.63502316e-04 7.14540947e-04
      8.16618209e-04 8.67656840e-04 7.65579578e-04 9.69734101e-04
      7.14540947e-04 1.02077273e-03 8.67656840e-04 9.18695470e-04
      7.14540947e-04 1.27596594e-03 1.17388868e-03 9.69734101e-04
      9.69734101e-04 1.07181142e-03 9.18695470e-04 5.10386366e-04
      7.14540947e-04 1.58219773e-03 8.67656840e-04 1.12284999e-03
      9.69734101e-04 6.12463686e-04 1.53115916e-03 5.10386366e-04
      6.63502316e-04 1.17388868e-03 1.12284999e-03 1.02077276e-04
      5.61424997e-04 6.12463686e-04 1.12284999e-03 9.18695470e-04
      1.17388868e-03 6.63502316e-04 9.69734101e-04 6.12463686e-04
      9.18695470e-04 1.22492737e-03 1.27596594e-03 6.12463686e-04
      1.58219773e-03 5.61424997e-04 9.18695470e-04 1.58219773e-03
      7.14540947e-04 6.63502316e-04 9.69734101e-04 9.18695470e-04
      6.63502316e-04 9.18695470e-04 1.17388868e-03 1.02077273e-03
      8.16618209e-04 9.18695470e-04 5.10386366e-04 6.63502316e-04
      1.02077273e-03 7.14540947e-04 2.39881594e-03 1.73531368e-03
      1.53115916e-03 1.73531368e-03 8.16618209e-04 1.37804321e-03
      1.17388868e-03 1.07181142e-03 1.78635237e-03 1.37804321e-03
      5.10386366e-04 9.18695470e-04 6.63502316e-04 9.18695470e-04
      1.83739094e-03 9.69734101e-04 1.02077273e-03 2.19466141e-03
      8.67656840e-04 1.42908189e-03 8.16618209e-04 8.67656840e-04
      9.18695470e-04 1.17388868e-03 8.16618209e-04 1.22492737e-03
      8.16618209e-04 8.16618209e-04 6.63502316e-04 3.57270474e-04
      4.08309104e-04 1.27596594e-03 5.61424997e-04 1.73531368e-03
      5.61424997e-04 1.68427511e-03 7.14540947e-04 4.59347735e-04
      2.04154552e-04 6.63502316e-04 1.37804321e-03 6.12463686e-04
      1.07181142e-03 1.07181142e-03 1.17388868e-03 4.59347735e-04
      8.16618209e-04 5.61424997e-04 6.12463686e-04 5.61424997e-04
      1.12284999e-03 1.17388868e-03 8.16618209e-04 1.42908189e-03
      9.69734101e-04 1.42908189e-03 1.07181142e-03 1.17388868e-03
      8.16618209e-04 5.10386366e-04 1.42908189e-03 1.93946820e-03
      5.61424997e-04 1.48012047e-03 1.63323642e-03 5.61424997e-04
      5.10386366e-04 1.42908189e-03 4.08309104e-04 6.63502316e-04
      5.10386366e-04 7.14540947e-04 1.02077273e-03 8.16618209e-04
      7.14540947e-04 1.32700463e-03 1.48012047e-03 6.12463686e-04
      8.67656840e-04 1.27596594e-03 2.29673879e-03 5.61424997e-04
      1.07181142e-03 1.53115916e-03 4.08309104e-04 1.22492737e-03
      1.02077273e-03 1.22492737e-03 1.02077273e-03 6.63502316e-04
      1.07181142e-03 3.06231843e-04 8.67656840e-04 5.61424997e-04
      1.02077273e-03 6.12463686e-04 9.69734101e-04 1.99050689e-03
      6.63502316e-04 2.70504784e-03 7.14540947e-04 3.06231843e-04
      3.06231843e-04 1.32700463e-03 1.22492737e-03 1.12284999e-03
      8.67656840e-04 5.61424997e-04 8.67656840e-04 5.61424997e-04
      5.10386366e-04 1.07181142e-03 1.07181142e-03 5.61424997e-04
      5.61424997e-04 1.07181142e-03 7.65579578e-04 1.32700463e-03
      1.42908189e-03 5.61424997e-04 1.83739094e-03 7.14540947e-04
      1.07181142e-03 1.88842963e-03 1.02077273e-03 2.04154552e-04
      1.22492737e-03 1.02077273e-03 1.27596594e-03 1.17388868e-03
      9.69734101e-04 8.16618209e-04 9.18695470e-04 1.48012047e-03
      1.07181142e-03 1.22492737e-03 1.78635237e-03 9.18695470e-04
      8.67656840e-04 8.16618209e-04 3.57270474e-04 7.65579578e-04
      4.08309104e-04 1.22492737e-03 3.06231843e-04 1.27596594e-03
      1.73531368e-03 6.12463686e-04 1.17388868e-03 1.12284999e-03
      1.27596594e-03 3.57270474e-04 1.42908189e-03 5.61424997e-04
      1.12284999e-03 1.48012047e-03 1.12284999e-03 1.22492737e-03
      1.22492737e-03 1.48012047e-03 7.14540947e-04 1.48012047e-03
      6.12463686e-04 1.37804321e-03 1.02077273e-03 1.17388868e-03
      1.12284999e-03 1.07181142e-03 3.57270474e-04 6.63502316e-04
      1.63323642e-03 1.07181142e-03 7.65579578e-04 0. 1.02077273e-03
      1.02077273e-03 6.12463686e-04 1.42908189e-03 1.17388868e-03
      4.59347735e-04 7.14540947e-04 8.67656840e-04 1.02077273e-03
      2.55193183e-04 9.69734101e-04 6.63502316e-04 8.16618209e-04
      7.65579578e-04 9.69734101e-04 7.14540947e-04 1.22492737e-03
      8.16618209e-04 1.27596594e-03 2.14362284e-03 1.42908189e-03
      1.68427511e-03 5.10386366e-04 1.27596594e-03 5.10386366e-04
      6.63502316e-04 8.67656840e-04 1.12284999e-03 1.48012047e-03
      1.07181142e-03 2.19466141e-03 5.10386366e-04 4.08309104e-04
      1.68427511e-03 7.14540947e-04 1.42908189e-03 4.59347735e-04
      6.63502316e-04 1.78635237e-03 8.16618209e-04 1.42908189e-03
      4.59347735e-04 8.16618209e-04 8.16618209e-04 2.60297046e-03
      5.10386366e-04 1.48012047e-03 5.10386366e-04 9.18695470e-04
      1.22492737e-03 8.67656840e-04 1.42908189e-03 2.04154552e-04
      5.10386366e-04 7.65579578e-04 1.17388868e-03 6.12463686e-04
      8.16618209e-04 8.67656840e-04 4.08309104e-04 9.18695470e-04
      2.55193183e-04 6.12463686e-04 4.59347735e-04 9.69734101e-04
      1.37804321e-03 2.50089332e-03 3.57270474e-04 8.67656840e-04
      8.16618209e-04 4.08309104e-04 1.17388868e-03 5.61424997e-04
      7.14540947e-04 5.61424997e-04 6.63502316e-04 1.07181142e-03
      1.12284999e-03 1.88842963e-03 8.16618209e-04 9.18695470e-04
      7.65579578e-04 1.22492737e-03 2.04154552e-04 1.07181142e-03
      9.18695470e-04 7.65579578e-04 5.61424997e-04 1.12284999e-03
      1.17388868e-03 9.18695470e-04 7.65579578e-04 6.63502316e-04
      7.65579578e-04 1.63323642e-03 6.63502316e-04 1.07181142e-03
      1.07181142e-03 9.18695470e-04 1.37804321e-03 1.17388868e-03
      8.16618209e-04 4.08309104e-04 8.16618209e-04 1.68427511e-03
      5.10386366e-04 8.67656840e-04 1.02077273e-03 8.67656840e-04
      6.12463686e-04 1.12284999e-03 9.69734101e-04 1.42908189e-03
      4.59347735e-04 7.14540947e-04 4.08309104e-04 7.14540947e-04
      8.16618209e-04 2.29673879e-03 8.16618209e-04 3.57270474e-04
      1.22492737e-03 8.16618209e-04 5.61424997e-04 9.18695470e-04
      1.17388868e-03 1.22492737e-03 5.10386366e-04 8.67656840e-04
      1.17388868e-03 1.02077273e-03 1.68427511e-03 6.63502316e-04
      6.12463686e-04 8.16618209e-04 1.22492737e-03 1.63323642e-03
      5.61424997e-04 1.58219773e-03 1.07181142e-03 7.65579578e-04
      1.27596594e-03 8.16618209e-04 7.14540947e-04 1.02077273e-03
      2.55193183e-04 4.08309104e-04 7.65579578e-04 1.78635237e-03
      5.61424997e-04 1.07181142e-03 1.37804321e-03 1.17388868e-03
      1.68427511e-03 5.61424997e-04 3.06231843e-04 1.78635237e-03
      1.12284999e-03 4.08309104e-04 1.22492737e-03 1.12284999e-03
      9.69734101e-04 4.08309104e-04 9.18695470e-04 5.10386366e-04
      1.78635237e-03 1.17388868e-03 1.93946820e-03 9.69734101e-04
      1.22492737e-03 1.27596594e-03 2.55193183e-04 9.69734101e-04
      1.63323642e-03 8.67656840e-04 9.69734101e-04 7.14540947e-04
      7.14540947e-04 1.37804321e-03 6.63502316e-04 7.14540947e-04
      1.93946820e-03 1.53115916e-03 7.65579578e-04 7.65579578e-04
      7.14540947e-04 1.99050689e-03 1.12284999e-03 1.12284999e-03
      9.18695470e-04 6.12463686e-04 8.16618209e-04 1.63323642e-03
      1.02077273e-03 1.58219773e-03 9.69734101e-04 5.10386366e-04
      1.22492737e-03 8.67656840e-04 8.67656840e-04 9.18695470e-04
      9.18695470e-04 1.07181142e-03 4.59347735e-04 4.59347735e-04
      9.18695470e-04 1.02077273e-03 1.99050689e-03 1.07181142e-03
      1.32700463e-03 7.14540947e-04 1.07181142e-03 1.32700463e-03
      1.93946820e-03 1.17388868e-03 7.65579578e-04 1.17388868e-03
      8.16618209e-04 6.63502316e-04 7.65579578e-04 1.07181142e-03
      1.22492737e-03 1.53115916e-03 9.18695470e-04 6.63502316e-04
      2.55193183e-04 4.08309104e-04 1.12284999e-03 4.08309104e-04
      6.12463686e-04 5.61424997e-04 1.53115916e-03 7.65579578e-04
      8.67656840e-04 1.58219773e-03 1.27596594e-03 9.18695470e-04
      8.67656840e-04 5.61424997e-04 8.16618209e-04 7.14540947e-04
      1.12284999e-03 1.58219773e-03 1.22492737e-03 4.59347735e-04
      1.88842963e-03 8.16618209e-04 1.73531368e-03 8.16618209e-04
      7.65579578e-04 8.16618209e-04 1.17388868e-03 2.14362284e-03
      7.65579578e-04 9.18695470e-04 1.12284999e-03 1.32700463e-03
      1.68427511e-03 7.65579578e-04 1.17388868e-03 9.69734101e-04
      8.16618209e-04 5.10386366e-04 7.14540947e-04 5.10386366e-04
      1.42908189e-03 1.27596594e-03 6.63502316e-04 1.07181142e-03
      1.53115916e-03 1.53115916e-03 1.48012047e-03 6.63502316e-04
      1.22492737e-03 9.69734101e-04 5.10386366e-04 1.17388868e-03
      5.10386366e-04 2.24569999e-03 9.18695470e-04 9.18695470e-04
      7.65579578e-04 6.63502316e-04 7.65579578e-04 1.63323642e-03
      5.10386380e-05 9.69734101e-04 1.37804321e-03 8.16618209e-04
      1.17388868e-03 5.61424997e-04 1.12284999e-03 9.69734101e-04
      1.83739094e-03 1.07181142e-03 1.99050689e-03 1.12284999e-03
      4.59347735e-04 5.10386380e-05 5.61424997e-04 9.18695470e-04
      8.67656840e-04 5.10386366e-04 6.12463686e-04 6.63502316e-04
      4.08309104e-04 5.61424997e-04 8.67656840e-04 5.10386366e-04
      1.17388868e-03 3.06231843e-04 5.61424997e-04 8.16618209e-04
      1.17388868e-03 9.69734101e-04 1.12284999e-03 8.16618209e-04
      7.65579578e-04 1.17388868e-03 9.69734101e-04 1.22492737e-03
      3.06231843e-04 1.68427511e-03 6.12463686e-04 4.08309104e-04
      1.63323642e-03 1.27596594e-03 1.53115921e-04 7.14540947e-04
      7.14540947e-04 7.14540947e-04 3.57270474e-04 1.58219773e-03
      2.34777736e-03 6.12463686e-04 9.69734101e-04 6.12463686e-04
      8.16618209e-04 4.59347735e-04 1.99050689e-03 8.67656840e-04
      6.12463686e-04 1.32700463e-03 8.67656840e-04 7.14540947e-04
      8.67656840e-04 1.78635237e-03 1.53115921e-04 9.18695470e-04
      6.63502316e-04 6.12463686e-04 1.42908189e-03 9.18695470e-04
      1.53115916e-03 8.16618209e-04 1.48012047e-03 4.08309104e-04
      1.99050689e-03 4.08309104e-04 5.61424997e-04 1.02077273e-03
      7.65579578e-04 3.57270474e-04 1.02077273e-03 7.14540947e-04
      4.08309104e-04 6.12463686e-04 4.59347735e-04 9.69734101e-04
      7.65579578e-04 8.16618209e-04 6.12463686e-04 8.67656840e-04
      9.69734101e-04 1.37804321e-03 1.63323642e-03 5.61424997e-04
      6.63502316e-04 2.80712498e-03 2.04154552e-04 1.02077273e-03
      1.27596594e-03 6.63502316e-04 4.08309104e-04 1.37804321e-03
      7.65579578e-04 1.93946820e-03 6.63502316e-04 6.12463686e-04
      7.65579578e-04 7.14540947e-04 1.07181142e-03 1.12284999e-03
      6.12463686e-04 9.69734101e-04 5.61424997e-04 5.61424997e-04
      2.09258427e-03 9.69734101e-04 8.67656840e-04 8.67656840e-04
      8.16618209e-04 1.07181142e-03 1.68427511e-03 4.08309104e-04
      6.12463686e-04 9.18695470e-04 1.58219773e-03 1.37804321e-03
      8.67656840e-04 1.07181142e-03 1.12284999e-03 1.32700463e-03
      9.69734101e-04 5.61424997e-04 1.12284999e-03 2.55193183e-04
      1.12284999e-03 6.63502316e-04 1.58219773e-03 3.06231843e-04
      2.75608641e-03 6.63502316e-04 1.68427511e-03 1.07181142e-03
      1.48012047e-03 6.63502316e-04 1.32700463e-03 5.61424997e-04
      4.59347735e-04 7.14540947e-04 8.16618209e-04 5.10386366e-04
      4.59347735e-04 4.08309104e-04 5.10386380e-05 1.53115916e-03
      1.27596594e-03 8.16618209e-04 1.12284999e-03 3.57270474e-04
      2.44985474e-03 9.69734101e-04 1.42908189e-03 1.63323642e-03
      6.12463686e-04 8.67656840e-04 6.63502316e-04 1.07181142e-03
      6.12463686e-04 3.06231843e-04 3.57270474e-04 7.14540947e-04
      1.12284999e-03 5.10386366e-04 1.32700463e-03 5.61424997e-04
      4.59347735e-04 5.61424997e-04 1.02077273e-03 1.58219773e-03
      7.14540947e-04 5.61424997e-04 1.42908189e-03 8.16618209e-04
      1.73531368e-03 1.02077273e-03 2.09258427e-03 8.67656840e-04
      7.14540947e-04 5.10386366e-04 5.61424997e-04 7.14540947e-04
      8.16618209e-04 1.02077273e-03 4.08309104e-04 1.07181142e-03
      8.67656840e-04 1.32700463e-03 7.14540947e-04 7.14540947e-04
      1.12284999e-03 6.12463686e-04 1.17388868e-03 2.55193183e-04
      1.17388868e-03 8.16618209e-04 1.73531368e-03</_>
    <_>
      0. 0. 0. 0. 0. 1.41843967e-03 0. 0. 4.25531901e-03 2.83687934e-03
      0. 0. 0. 0. 0. 0. 0. 0. 8.51063803e-03 0. 0. 0. 0. 0.
      1.56028364e-02 0. 0. 0. 0. 0. 0. 0. 0. 1.41843967e-03 0. 0.
      1.84397157e-02 2.83687934e-03 0. 0. 0. 0. 1.41843967e-03 0.
      2.83687934e-03 2.83687934e-03 5.67375869e-03 0. 0. 0. 0. 0.
      1.41843967e-03 0. 0. 0. 0. 0. 1.41843967e-03 1.41843967e-03 0.
      1.41843967e-03 2.83687934e-03 0. 5.67375869e-03 0. 0. 0. 0.
      1.70212761e-02 0. 0. 2.83687934e-03 0. 0. 0. 0. 0. 0. 0. 0. 0. 0.
      2.83687934e-03 0. 0. 1.41843967e-03 0. 0. 0. 0. 0. 5.67375869e-03
      9.92907770e-03 4.25531901e-03 2.83687934e-03 8.51063803e-03 0. 0.
      5.67375869e-03 0. 0. 2.83687934e-03 0. 0. 0. 0. 0. 0. 0. 0.
      2.83687934e-03 0. 0. 0. 4.25531901e-03 1.41843967e-03 0. 0. 0.
      1.41843967e-03 0. 2.83687934e-03 0. 0. 0. 0. 0. 0. 1.41843967e-03
      1.41843967e-03 9.92907770e-03 1.41843967e-03 0. 8.51063803e-03 0.
      0. 0. 0. 0. 0. 0. 0. 0. 0. 0. 0. 0. 0. 0. 0. 0. 0. 1.41843967e-03
      0. 0. 0. 1.41843967e-03 0. 0. 4.25531901e-03 0. 2.83687934e-03 0.
      0. 0. 0. 0. 0. 0. 0. 0. 1.13475174e-02 0. 0. 0. 0. 0. 0.
      1.41843967e-03 0. 0. 0. 2.83687934e-03 0. 0. 0. 0. 2.83687934e-03
      0. 0. 0. 0. 0. 0. 0. 0. 0. 0. 1.41843967e-03 0. 0. 0. 0. 0. 0. 0.
      0. 2.83687934e-03 1.41843967e-03 0. 0. 1.41843967e-03 0. 0. 0. 0.
      0. 1.41843967e-03 7.09219836e-03 0. 7.09219836e-03 1.41843967e-03
      1.41843967e-03 0. 0. 0. 0. 0. 0. 0. 0. 2.83687934e-03 0.
      2.83687934e-03 0. 0. 1.41843967e-03 0. 0. 0. 0. 0. 0. 0. 0. 0. 0.
      0. 1.41843967e-03 0. 0. 0. 0. 2.83687934e-03 0. 0. 0.
      1.41843967e-03 7.09219836e-03 0. 0. 2.83687934e-03 0. 0. 0. 0.
      1.41843967e-03 0. 1.41843967e-03 0. 0. 0. 0. 7.09219836e-03 0. 0.
      0. 4.25531901e-03 0. 1.41843967e-03 0. 0. 0. 0. 0. 0. 0. 0. 0. 0.
      0. 0. 2.83687934e-03 0. 0. 0. 1.41843967e-03 0. 0. 1.41843967e-03
      0. 0. 0. 0. 0. 1.41843967e-03 0. 0. 0. 0. 0. 1.41843967e-03
      1.41843967e-03 0. 2.83687934e-03 0. 0. 0. 0. 1.41843967e-03 0. 0.
      0. 0. 0. 0. 0. 0. 5.67375869e-03 0. 0. 0. 0. 0. 0. 0. 0.
      9.92907770e-03 0. 0. 0. 0. 0. 0. 0. 0. 0. 0. 0. 0. 0. 0.
      1.41843967e-03 0. 0. 0. 0. 1.13475174e-02 1.41843967e-03
      4.25531901e-03 0. 0. 1.41843967e-03 1.41843967e-03 0. 0.
      2.83687934e-03 3.97163108e-02 0. 0. 0. 0. 0. 0. 0. 1.27659570e-02
      0. 1.41843967e-03 0. 0. 0. 0. 2.83687934e-03 0. 0. 0. 0. 0.
      4.25531901e-03 0. 4.25531901e-03 0. 1.41843967e-03 0. 0. 0. 0. 0.
      0. 0. 0. 0. 7.09219836e-03 2.83687934e-03 0. 2.83687934e-03 0. 0.
      0. 0. 0. 0. 0. 0. 0. 4.25531901e-03 1.41843967e-03 0.
      8.51063803e-03 0. 0. 0. 0. 0. 8.51063803e-03 1.41843967e-03
      7.09219836e-03 1.41843967e-03 2.83687934e-03 0. 4.25531901e-03 0.
      0. 1.41843967e-03 0. 0. 0. 1.41843967e-03 0. 1.13475174e-02 0. 0.
      2.83687934e-03 0. 2.83687934e-03 0. 2.83687934e-03 2.83687934e-03
      1.41843967e-03 0. 0. 1.41843967e-03 0. 0. 0. 0. 0. 0.
      2.83687934e-03 1.41843967e-03 0. 2.83687934e-03 0. 0. 0.
      1.41843967e-03 0. 0. 0. 0. 0. 0. 0. 0. 0. 1.41843967e-03 0.
      8.51063803e-03 0. 0. 0. 7.09219836e-03 1.41843967e-03 0. 0. 0.
      2.83687934e-03 0. 0. 0. 0. 0. 0. 1.41843967e-03 0. 0.
      1.41843967e-03 0. 0. 1.27659570e-02 0. 1.41843967e-03 0. 0. 0. 0.
      0. 0. 0. 0. 0. 0. 0. 0. 0. 1.41843967e-03 0. 0. 0. 0. 0.
      1.41843967e-03 1.41843967e-03 0. 0. 0. 0. 0. 0. 8.51063803e-03 0.
      0. 0. 0. 1.41843967e-03 1.41843967e-03 0. 1.13475174e-02 0. 0. 0.
      0. 0. 7.09219836e-03 1.27659570e-02 0. 1.13475174e-02
      1.41843967e-03 0. 0. 1.41843967e-03 0. 0. 0. 0. 1.41843967e-03 0.
      0. 0. 1.41843967e-03 1.41843967e-03 0. 0. 0. 0. 0. 0. 0. 0. 0. 0.
      0. 1.41843967e-03 2.83687934e-03 0. 0. 0. 0. 4.25531901e-03 0. 0.
      1.41843967e-03 0. 0. 0. 0. 0. 0. 2.83687934e-03 0. 0. 0. 0.
      2.83687934e-03 0. 0. 0. 0. 0. 0. 0. 4.25531901e-03 0. 0. 0.
      5.67375869e-03 0. 0. 0. 1.41843967e-03 2.83687934e-03
      1.41843967e-03 1.41843967e-03 1.41843967e-03 0. 0. 0.
      2.26950347e-02 0. 7.09219836e-03 0. 0. 0. 0. 2.83687934e-03 0. 0.
      1.41843967e-03 1.41843967e-03 0. 0. 0. 0. 0. 0. 2.83687934e-03 0.
      0. 0. 0. 0. 1.41843967e-02 0. 1.41843967e-03 0. 5.67375869e-03 0.
      2.83687934e-03 0. 0. 1.41843967e-03 2.83687934e-03 0. 0. 0. 0. 0.
      0. 2.83687934e-03 0. 0. 0. 0. 1.41843967e-03 0. 0. 0.
      9.92907770e-03 0. 0. 0. 0. 0. 1.41843967e-03 0. 4.25531901e-03 0.
      1.27659570e-02 0. 5.67375869e-03 0. 0. 0. 0. 0. 0. 0. 0. 0. 0. 0.
      0. 0. 4.25531901e-03 0. 0. 1.41843967e-03 1.41843967e-03 0. 0. 0.
      0. 0. 0. 0. 0. 0. 0. 0. 0. 1.41843967e-03 0. 2.83687934e-03 0. 0.
      1.41843967e-03 0. 0. 0. 0. 0. 2.83687934e-03 4.25531901e-03 0.
      8.51063803e-03 0. 0. 2.83687934e-03 1.41843967e-03 2.83687934e-03
      0. 5.67375869e-03 0. 0. 0. 1.41843967e-03 7.09219836e-03
      1.41843967e-03 0. 0. 2.83687934e-03 0. 0. 0. 2.83687934e-03
      1.27659570e-02 2.83687934e-03 0. 1.41843967e-03 0. 0. 0.
      1.41843967e-03 0. 0. 1.41843967e-03 0. 0. 0. 4.25531901e-03
      5.67375869e-03 5.67375869e-03 0. 0. 0. 0. 0. 0. 2.83687934e-03 0.
      0. 0. 0. 0. 0. 0. 0. 0. 0. 0. 0. 0. 9.92907770e-03 0. 0. 0. 0. 0.
      0. 0. 0. 0. 0. 0. 1.41843967e-03 0. 0. 2.83687934e-03 0.
      5.67375869e-03 0. 8.51063803e-03 1.41843967e-03 0. 0. 0. 0. 0.
      4.25531901e-03 0. 0. 1.41843967e-03 2.83687934e-03 1.41843967e-03
      0. 0. 5.67375869e-03 0. 0. 0. 0. 0. 0. 0. 0. 0. 0. 1.41843967e-03
      0. 0. 0. 0. 0. 0. 0. 1.41843967e-03 0. 0. 0. 0. 0. 1.41843967e-03
      0. 0. 0. 0. 0. 0. 0. 0. 0. 2.83687934e-03 0. 0. 0. 1.41843967e-03
      0. 0. 2.83687934e-03 5.67375869e-03 0. 2.83687934e-03 0. 0. 0.
      1.41843967e-03 0. 0. 0. 0. 0. 0. 1.41843967e-03 1.41843967e-03 0.
      0. 1.41843967e-03 0. 5.67375869e-03 0. 0. 1.41843967e-03 0. 0. 0.
      0. 0. 4.25531901e-03 4.25531901e-03 0. 5.67375869e-03 0.
      1.41843967e-03 0. 0. 1.41843967e-03 0. 0. 0. 0. 5.67375869e-03
      1.41843967e-03 0. 0. 0. 0. 0. 0. 7.09219836e-03 0. 2.83687934e-03
      0. 1.41843967e-03 1.41843967e-03 1.41843967e-03 0. 0. 0. 0. 0.
      1.41843967e-03 1.41843967e-03 0. 0. 2.83687934e-03 1.41843967e-03
      0. 0. 0. 0. 0. 2.83687934e-03 0. 0. 0. 0. 0. 0. 0. 9.92907770e-03
      0. 1.41843967e-03 0. 0. 0. 2.83687934e-03 2.83687934e-03 0. 0. 0.
      0. 0. 1.13475174e-02 0. 1.41843967e-03 0. 0. 1.41843967e-03 0. 0.
      0. 0. 1.41843967e-03 0. 0. 0. 0. 0. 0. 0. 0. 1.41843967e-03 0. 0.
      0. 0. 0. 0. 0. 0. 0. 0. 7.09219836e-03 0. 0. 1.41843967e-03
      1.41843967e-03 0. 2.83687934e-03 0. 0. 0. 0. 0. 0. 4.25531901e-03
      0. 1.41843967e-03 0.</_>
    <_>
      0. 0. 0. 0. 0. 0. 0. 0. 0. 0. 0. 0. 0. 0. 0. 0. 0. 0. 0. 0. 0. 0.
      0. 0. 0. 0. 0. 0. 0. 0. 0. 0. 0. 0. 0. 0. 1.09090909e-01 0. 0. 0.
      0. 0. 0. 0. 0. 0. 0. 0. 0. 0. 0. 0. 0. 0. 0. 0. 0. 0. 0. 0. 0. 0.
      0. 0. 3.63636352e-02 0. 0. 0. 0. 1.45454541e-01 0. 0. 0. 0. 0. 0.
      0. 0. 0. 0. 0. 0. 0. 0. 0. 0. 0. 0. 0. 0. 0. 0. 1.81818176e-02 0.
      0. 1.81818176e-02 0. 0. 0. 0. 0. 0. 0. 0. 0. 0. 0. 0. 0. 0. 0. 0.
      0. 0. 0. 0. 0. 0. 0. 0. 0. 0. 0. 0. 0. 0. 0. 0. 0. 0. 0. 0. 0. 0.
      0. 0. 0. 0. 0. 0. 0. 0. 0. 0. 0. 0. 0. 0. 0. 0. 0. 0. 0. 0. 0. 0.
      0. 0. 0. 0. 0. 0. 0. 0. 0. 0. 0. 0. 0. 0. 0. 0. 0. 0. 0. 0. 0. 0.
      0. 0. 0. 0. 0. 0. 0. 0. 0. 0. 0. 0. 0. 0. 0. 0. 0. 0. 0. 0. 0. 0.
      0. 0. 0. 0. 0. 0. 0. 0. 0. 0. 0. 0. 0. 0. 0. 0. 0. 0. 0. 0. 0. 0.
      0. 0. 0. 0. 0. 0. 0. 0. 0. 0. 0. 0. 0. 0. 0. 0. 0. 0. 0. 0. 0. 0.
      0. 0. 0. 0. 0. 0. 0. 0. 0. 0. 0. 0. 0. 0. 0. 1.81818176e-02 0. 0.
      0. 0. 0. 0. 0. 0. 0. 0. 0. 0. 0. 0. 1.81818176e-02 0. 0. 0.
      1.81818176e-02 0. 0. 0. 0. 0. 0. 0. 0. 0. 0. 0. 0. 0. 0. 0. 0. 0.
      0. 0. 0. 0. 0. 0. 0. 0. 0. 0. 0. 0. 0. 0. 0. 0. 0. 0. 0. 0. 0. 0.
      0. 0. 0. 0. 0. 0. 0. 0. 0. 0. 0. 0. 0. 0. 0. 0. 0. 0. 0. 0. 0. 0.
      0. 0. 0. 0. 0. 0. 0. 0. 0. 0. 0. 0. 0. 0. 0. 0. 0. 0.
      1.81818176e-02 0. 0. 0. 0. 0. 0. 0. 0. 0. 0. 0. 0. 0. 0. 0. 0. 0.
      0. 0. 0. 0. 0. 0. 0. 0. 0. 0. 0. 0. 0. 0. 0. 0. 0. 1.81818176e-02
      0. 0. 0. 0. 0. 0. 0. 0. 0. 0. 0. 0. 0. 0. 0. 0. 0. 0. 0. 0. 0. 0.
      0. 0. 0. 0. 0. 0. 0. 0. 0. 0. 0. 1.81818176e-02 0. 0. 0. 0. 0. 0.
      0. 0. 0. 0. 0. 0. 0. 0. 0. 0. 0. 0. 0. 0. 0. 0. 0. 0. 0. 0. 0. 0.
      0. 0. 0. 0. 0. 0. 0. 0. 0. 0. 0. 0. 0. 0. 0. 0. 0. 0. 0. 0. 0. 0.
      0. 0. 0. 0. 0. 0. 0. 0. 0. 0. 0. 0. 0. 0. 0. 0. 0. 1.81818176e-02
      0. 0. 0. 0. 1.81818176e-02 0. 0. 0. 0. 0. 0. 0. 0. 0. 0. 0. 0. 0.
      0. 0. 0. 0. 0. 0. 0. 0. 0. 0. 0. 0. 0. 0. 0. 0. 1.81818176e-02 0.
      0. 0. 1.81818176e-02 0. 0. 0. 1.81818176e-02 0. 0. 0. 0. 0. 0. 0.
      0. 1.81818176e-02 0. 0. 0. 0. 0. 0. 0. 0. 0. 0. 0. 0. 0. 0. 0. 0.
      0. 0. 0. 0. 0. 0. 0. 0. 0. 0. 0. 0. 0. 0. 0. 0. 0. 0. 0. 0. 0. 0.
      0. 0. 0. 0. 0. 0. 0. 0. 0. 0. 0. 0. 0. 0. 0. 0. 0. 0. 0. 0. 0. 0.
      0. 0. 0. 0. 0. 0. 0. 0. 0. 0. 9.09090862e-02 0. 0. 0. 0. 0. 0. 0.
      0. 0. 0. 0. 0. 0. 0. 0. 3.63636352e-02 0. 0. 0. 0. 0. 0. 0. 0. 0.
      0. 0. 0. 0. 0. 0. 0. 0. 0. 0. 0. 0. 0. 0. 0. 0. 0. 0. 0. 0. 0. 0.
      0. 0. 0. 0. 0. 0. 0. 0. 0. 0. 0. 0. 0. 0. 0. 0. 0. 0. 0. 0. 0. 0.
      0. 0. 0. 0. 0. 0. 0. 0. 0. 0. 0. 0. 0. 0. 0. 0. 0. 0. 0. 0. 0. 0.
      0. 0. 0. 0. 0. 0. 0. 0. 0. 0. 0. 0. 0. 0. 0. 1.81818176e-02 0. 0.
      0. 0. 0. 0. 0. 0. 0. 0. 0. 0. 0. 0. 0. 0. 0. 0. 0. 0.
      1.81818176e-02 0. 0. 0. 0. 0. 0. 0. 0. 0. 0. 0. 0. 0. 0. 0. 0. 0.
      0. 0. 0. 0. 0. 0. 0. 0. 0. 0. 0. 0. 0. 0. 0. 0. 0. 0. 0.
      3.63636352e-02 0. 0. 0. 0. 0. 0. 0. 0. 0. 0. 0. 0. 0. 0.
      9.09090862e-02 0. 0. 0. 0. 0. 0. 0. 0. 0. 0. 0. 0. 0. 0. 0. 0. 0.
      0. 0. 0. 0. 0. 0. 0. 0. 0. 0. 0. 0. 0. 0. 0. 0. 0. 0. 0. 0. 0. 0.
      0. 0. 0. 0. 0. 0. 0. 0. 0. 0. 0. 0. 0. 0. 1.81818176e-02 0. 0. 0.
      0. 0. 0. 0. 3.63636352e-02 0. 0. 0. 0. 0. 0. 0. 0. 0. 0. 0. 0. 0.
      0. 0. 0. 0. 0. 1.81818176e-02 0. 0. 0. 0. 0. 0. 0. 0. 0. 0. 0.
      1.81818176e-02 0. 0. 0. 0. 0. 0. 0. 0. 0. 0. 1.81818176e-02 0. 0.
      0. 0. 0. 0. 0. 0. 0. 0. 0. 0. 0. 0. 1.81818176e-02 0. 0. 0. 0. 0.
      0. 0. 0. 0. 0. 0. 0. 0. 0. 0. 0. 0. 0. 0. 0. 0. 0. 1.81818176e-02
      0. 0. 0. 0. 0. 0. 0. 0. 0. 0. 0. 0. 0. 0. 0. 0. 0. 0. 0. 0. 0. 0.
      0. 0. 0. 0. 0. 0. 0. 0. 0. 0. 0. 0. 0. 0. 0. 0. 0. 0. 0. 0.
      1.81818176e-02 0. 0. 0. 0. 0. 0. 0. 0. 0. 0. 0. 0. 0. 0. 0. 0.</_></uncompressed_support_vectors>
  <decision_functions>
    <_>
      <sv_count>1</sv_count>
      <rho>3.4965839906362817e-02</rho>
      <alpha>
        1.</alpha>
      <index>
        0</index></_></decision_functions></opencv_ml_svm>
</opencv_storage>
