<?xml version="1.0"?>
<opencv_storage>
<opencv_ml_svm>
  <format>3</format>
  <svmType>C_SVC</svmType>
  <kernel>
    <type>LINEAR</type></kernel>
  <C>1.</C>
  <term_criteria><iterations>100</iterations></term_criteria>
  <var_count>1000</var_count>
  <class_count>2</class_count>
  <class_labels type_id="opencv-matrix">
    <rows>2</rows>
    <cols>1</cols>
    <dt>i</dt>
    <data>
      -1 1</data></class_labels>
  <sv_total>1</sv_total>
  <support_vectors>
    <_>
      0. -4.25531901e-03 0. -4.25531901e-03 -4.25531901e-03
      -2.83687934e-03 -2.83687934e-03 0. 0. 0. -1.41843967e-03
      -1.41843967e-03 -1.56028364e-02 0. 0. 0. 0. 0. 0. 0.
      -1.41843967e-03 0. 0. 0. 0. 0. 0. 0. 0. 0. 0. 0. 0.
      -1.41843967e-03 0. 0. 0. 0. 0. -1.41843967e-03 0. 0. 0. 0. 0. 0.
      0. 6.83430023e-03 0. 0. 0. 0. -1.41843967e-03 0. -1.41843967e-03
      0. 0. 0. 0. 0. -2.83687934e-03 0. 6.83430023e-03 0. 0.
      -1.41843967e-03 0. 0. 0. -2.83687934e-03 0. 7.10509270e-02 0.
      -2.83687934e-03 -1.41843967e-03 0. 0. 0. 0. 0. -1.41843967e-03
      -1.41843967e-03 -1.41843967e-03 0. 0. -1.41843967e-03 0. 0. 0. 0.
      0. 0. 0. 0. 0. 0. 0. 0. -1.41843967e-03 -5.67375869e-03
      -1.41843967e-03 0. 0. 0. 0. -2.83687934e-03 0. -1.41843967e-03 0.
      0. 0. -2.83687934e-03 0. -1.41843967e-03 0. 0. 0. 0. 0.
      -2.83687934e-03 0. 0. 0. -7.09219836e-03 0. 0. 0. -4.25531901e-03
      0. -1.41843967e-03 0. 0. -1.41843967e-03 -1.41843967e-03
      -1.41843967e-03 0. 0. 0. 0. -1.41843967e-03 0. 0. 0. 0. 0.
      -1.41843967e-03 0. -2.83687934e-03 -1.41843967e-03 -4.25531901e-03
      0. 0. -1.41843967e-03 2.78529972e-02 0. 0. 0. 0. -1.41843967e-03
      -1.41843967e-03 0. -1.41843967e-03 2.92714369e-02 -5.67375869e-03
      0. 0. 0. -2.83687934e-03 0. 0. -2.83687934e-03 0. 0. 0. 0. 0. 0.
      -1.41843967e-03 0. -2.83687934e-03 0. -5.67375869e-03 0.
      -1.41843967e-03 2.92714369e-02 -2.83687934e-03 -1.41843967e-03
      3.99742089e-03 0. -2.83687934e-03 0. 0. -4.25531901e-03 0.
      -1.41843967e-03 -7.09219836e-03 0. 0. 0. 0. 0. 0. 0.
      -1.41843967e-03 0. 0. -1.56028364e-02 0. -1.41843967e-03 0.
      -1.41843967e-03 0. 0. -1.41843967e-03 0. 0. 0. -2.83687934e-03 0.
      0. 3.99742089e-03 0. -1.41843967e-03 0. 0. -2.83687934e-03 0. 0.
      0. 0. 0. 0. -5.67375869e-03 -1.41843967e-03 0. 0. 0. 0. 0. 0.
      -1.41843967e-03 -2.83687934e-03 0. -1.41843967e-03 0. 0. 0.
      -1.41843967e-03 0. -1.41843967e-03 -5.67375869e-03 0. 0. 0. 0. 0.
      -2.83687934e-03 0. 0. 0. 0. 0. 0. 0. 0. 0. 0. 0. -2.83687934e-03
      0. 0. 0. 0. 0. 0. 0. -4.25531901e-03 2.35976782e-02 0. 0. 0. 0.
      8.25273991e-03 0. 0. -1.41843967e-03 -4.25531901e-03 0.
      -7.09219836e-03 -1.41843967e-03 0. -1.41843967e-03 0.
      -1.41843967e-03 0. 0. 8.25273991e-03 0. 0. 0. 0. 0. 0. 0. 0.
      -1.41843967e-03 -1.41843967e-03 0. -5.67375869e-03 0. 0. 0. 0.
      -1.41843967e-03 0. 0. 0. -2.83687934e-03 0. -1.41843967e-03 0.
      -1.41843967e-03 0. 0. -1.41843967e-03 0. 0. 0. 0. 0. 0. 0. 0. 0.
      0. -1.41843967e-03 0. 0. 0. 0. 0. 0. 0. 0. 9.67117958e-03 0.
      -5.67375869e-03 0. -1.41843967e-03 0. 0. 0. 0. 0. -4.25531901e-03
      0. 0. 0. 0. 0. 0. -1.41843967e-03 0. 0. 0. -1.41843967e-03 0. 0.
      0. 0. 0. 0. 0. 0. 0. 0. 0. 0. 0. 0. -8.51063803e-03
      -1.41843967e-03 -5.67375869e-03 0. 0. 0. 0. 0. -1.41843967e-03 0.
      0. -2.83687934e-03 0. 0. -1.41843967e-03 0. 0. -1.41843967e-03 0.
      0. 0. -1.41843967e-03 0. 0. -2.83687934e-03 0. 0. 0. 0.
      -1.41843967e-03 0. -8.51063803e-03 0. 1.81818176e-02 0. 0. 0. 0.
      0. -7.09219836e-03 0. -1.41843967e-03 0. 0. 0. 0. -1.41843967e-03
      -2.83687934e-03 -5.67375869e-03 -1.41843967e-03 -4.25531901e-03 0.
      0. 0. 0. 0. 0. 0. 0. 0. 0. 0. 0. 0. 0. 0. -1.41843967e-03 0. 0.
      -1.41843967e-03 -1.41843967e-03 0. 0. 0. 0. 0. 0. -4.25531901e-03
      0. 0. 0. 0. 0. 0. 0. 0. -1.41843967e-03 0. 0. 0. -4.25531901e-03
      0. 0. 0. 0. 0. 0. 0. 0. -2.83687934e-03 -1.41843967e-03 0. 0. 0.
      0. 0. -2.83687934e-03 0. 0. 0. 0. 0. 1.53449383e-02 0. 0.
      -1.41843967e-03 0. 0. -9.92907770e-03 0. -1.41843967e-03
      -1.41843967e-03 -1.41843967e-03 0. 0. 0. 0. 0. 0. 0.
      -2.83687934e-03 0. 0. 0. 0. 0. -4.25531901e-03 0. -1.41843967e-03
      -1.41843967e-03 0. 0. 0. -9.92907770e-03 -2.55319141e-02 0. 0. 0.
      -7.09219836e-03 0. 0. -4.25531901e-03 3.35267559e-02 0. 0. 0. 0.
      -8.51063803e-03 -1.41843967e-03 -1.84397157e-02 0. -1.41843967e-03
      0. 0. 0. -1.41843967e-03 0. 0. 0. 0. 0. 0. 0. 0. 0. 0. 0.
      -4.25531901e-03 1.67633779e-02 0. 0. -1.41843967e-03 0. 0. 0. 0.
      0. 2.64345575e-02 -1.41843967e-03 0. 0. -2.83687934e-03 0. 0.
      -2.83687934e-03 0. -2.83687934e-03 0. 0. -1.13475174e-02 0.
      -1.41843967e-03 -1.41843967e-03 0. -1.41843967e-03 0.
      -2.83687934e-03 0. 0. 0. 0. -2.83687934e-03 0. -1.41843967e-03 0.
      0. 0. 0. 5.41586056e-03 -2.83687934e-03 -1.41843967e-03 0. 0. 0.
      0. 0. 0. 0. 0. 0. 0. 0. 0. 0. 0. 9.67117958e-03 0. 0. 0.
      1.10896192e-02 0. 0. 0. 0. 0. 0. 0. -5.67375869e-03
      -8.51063803e-03 0. 0. 0. 0. 0. 0. 0. 0. -1.41843967e-03 0.
      -5.67375869e-03 -4.25531901e-03 0. 0. -2.83687934e-03 0.
      -1.13475174e-02 0. 0. 0. 0. 0. -1.41843967e-03 -1.41843967e-03
      -8.51063803e-03 2.64345575e-02 1.39264986e-02 0. 0. 0. 0.
      -2.83687934e-03 -1.41843967e-03 0. 0. 0. 0. 0. 0. 0. 0. 0. 0. 0.
      -2.83687934e-03 0. 0. 0. 0. 0. 0. 0. 0. 0. -1.41843967e-03 0. 0.
      0. 0. 0. 0. 0. -1.41843967e-03 0. 0. 0. 0. 0. 6.70535117e-02 0. 0.
      0. 0. 0. 0. 0. 0. 0. 0. 0. 0. -1.41843967e-03 0. -4.25531901e-03
      0. 0. -1.41843967e-03 0. 0. 0. 0. 0. 0. 0. 0. -4.25531901e-03
      -2.83687934e-03 0. 0. 0. 0. 0. 0. -1.41843967e-03 0. 0.
      -5.67375869e-03 0. 0. 0. 3.21083143e-02 0. 0. 0. 0. 0. 0. 0.
      -2.83687934e-03 0. 0. -1.13475174e-02 0. 0. 1.53449383e-02
      -2.83687934e-03 0. 0. 8.09800103e-02 0. 0. 0. 0. 0. 0.
      -9.92907770e-03 -2.83687934e-03 0. 0. 0. 0. 0. 0. -2.83687934e-03
      -1.41843967e-03 0. -1.41843967e-03 -1.41843967e-03 -1.70212761e-02
      0. -1.41843967e-03 -1.41843967e-03 -1.41843967e-03 0.
      -1.41843967e-03 -1.41843967e-03 -1.41843967e-03 0. 0.
      -1.41843967e-03 -2.83687934e-03 0. 9.77433920e-02 0. 0. 0. 0. 0.
      0. 0. 0. 0. -4.25531901e-03 0. 0. -4.25531901e-03 0. 0. 0. 0. 0.
      0. 0. 0. 0. 0. -5.67375869e-03 -7.09219836e-03 0. 0. 0. 0. 0. 0.
      0. 0. 0. 0. 0. 0. 0. 0. 0. 0. 0. 0. 0. 0. 0. -2.83687934e-03 0. 0.
      0. 0. 0. -4.25531901e-03 -2.83687934e-03 0. 0. -1.41843967e-03 0.
      0. -1.41843967e-03 0. 0. 0. 0. 0. 0. 1.10896192e-02
      -7.09219836e-03 -1.41843967e-03 0. -4.25531901e-03 0. 0.
      -1.41843967e-03 0. 0. 0. 0. -2.83687934e-03 0. 0. 0. 0. 0. 0. 0.
      0. 0. 0. 0. 2.92714369e-02 0. -1.41843967e-03 0. 0. 0.
      1.10896192e-02 0. 0. -1.41843967e-03 -5.67375869e-03 0. 0. 0. 0.
      0. 0. 0. 0. 0. 0. -1.41843967e-03 -1.41843967e-03 0. 0. 0. 0. 0.
      0. 0. 0. -1.41843967e-03 0. -7.09219836e-03 0. 0. -1.41843967e-03
      0. 0. 0. -1.41843967e-03 0. 0. -1.41843967e-03 -1.41843967e-03 0.
      0. 0. -1.41843967e-03 0. 0. 0. 0. 0. -1.41843967e-03 0. 0. 0. 0.
      0. 0. -1.41843967e-03 0. 0. -1.41843967e-03 0. -1.41843967e-03 0.
      0. 0. -1.41843967e-03 -1.41843967e-03 -1.41843967e-03 0. 0. 0.
      -1.41843967e-03 0. 0. 0. -1.41843967e-03 0. -2.83687934e-03 0. 0.
      0. -1.41843967e-03 0. 0. 0. 0. 0. -1.41843967e-03 0.
      -5.67375869e-03 0. 0. 0. -1.41843967e-03 -2.83687934e-03 0. 0. 0.
      0. 0. 0. 0. 0. 0. 0. 0. 0. 0. 0. 0. 0. 0. 0.</_></support_vectors>
  <uncompressed_sv_total>2</uncompressed_sv_total>
  <uncompressed_support_vectors>
    <_>
      0. 4.25531901e-03 0. 4.25531901e-03 4.25531901e-03 2.83687934e-03
      2.83687934e-03 0. 0. 0. 1.41843967e-03 1.41843967e-03
      1.56028364e-02 0. 0. 0. 0. 0. 0. 0. 1.41843967e-03 0. 0. 0. 0. 0.
      0. 0. 0. 0. 0. 0. 0. 1.41843967e-03 0. 0. 0. 0. 0. 1.41843967e-03
      0. 0. 0. 0. 0. 0. 0. 1.13475174e-02 0. 0. 0. 0. 1.41843967e-03 0.
      1.41843967e-03 0. 0. 0. 0. 0. 2.83687934e-03 0. 1.13475174e-02 0.
      0. 1.41843967e-03 0. 0. 0. 2.83687934e-03 0. 1.98581554e-02 0.
      2.83687934e-03 1.41843967e-03 0. 0. 0. 0. 0. 1.41843967e-03
      1.41843967e-03 1.41843967e-03 0. 0. 1.41843967e-03 0. 0. 0. 0. 0.
      0. 0. 0. 0. 0. 0. 0. 1.41843967e-03 5.67375869e-03 1.41843967e-03
      0. 0. 0. 0. 2.83687934e-03 0. 1.41843967e-03 0. 0. 0.
      2.83687934e-03 0. 1.41843967e-03 0. 0. 0. 0. 0. 2.83687934e-03 0.
      0. 0. 7.09219836e-03 0. 0. 0. 4.25531901e-03 0. 1.41843967e-03 0.
      0. 1.41843967e-03 1.41843967e-03 1.41843967e-03 0. 0. 0. 0.
      1.41843967e-03 0. 0. 0. 0. 0. 1.41843967e-03 0. 2.83687934e-03
      1.41843967e-03 4.25531901e-03 0. 0. 1.41843967e-03 8.51063803e-03
      0. 0. 0. 0. 1.41843967e-03 1.41843967e-03 0. 1.41843967e-03
      7.09219836e-03 5.67375869e-03 0. 0. 0. 2.83687934e-03 0. 0.
      2.83687934e-03 0. 0. 0. 0. 0. 0. 1.41843967e-03 0. 2.83687934e-03
      0. 5.67375869e-03 0. 1.41843967e-03 7.09219836e-03 2.83687934e-03
      1.41843967e-03 1.41843967e-02 0. 2.83687934e-03 0. 0.
      4.25531901e-03 0. 1.41843967e-03 7.09219836e-03 0. 0. 0. 0. 0. 0.
      0. 1.41843967e-03 0. 0. 1.56028364e-02 0. 1.41843967e-03 0.
      1.41843967e-03 0. 0. 1.41843967e-03 0. 0. 0. 2.83687934e-03 0. 0.
      1.41843967e-02 0. 1.41843967e-03 0. 0. 2.83687934e-03 0. 0. 0. 0.
      0. 0. 5.67375869e-03 1.41843967e-03 0. 0. 0. 0. 0. 0.
      1.41843967e-03 2.83687934e-03 0. 1.41843967e-03 0. 0. 0.
      1.41843967e-03 0. 1.41843967e-03 5.67375869e-03 0. 0. 0. 0. 0.
      2.83687934e-03 0. 0. 0. 0. 0. 0. 0. 0. 0. 0. 0. 2.83687934e-03 0.
      0. 0. 0. 0. 0. 0. 4.25531901e-03 1.27659570e-02 0. 0. 0. 0.
      9.92907770e-03 0. 0. 1.41843967e-03 4.25531901e-03 0.
      7.09219836e-03 1.41843967e-03 0. 1.41843967e-03 0. 1.41843967e-03
      0. 0. 9.92907770e-03 0. 0. 0. 0. 0. 0. 0. 0. 1.41843967e-03
      1.41843967e-03 0. 5.67375869e-03 0. 0. 0. 0. 1.41843967e-03 0. 0.
      0. 2.83687934e-03 0. 1.41843967e-03 0. 1.41843967e-03 0. 0.
      1.41843967e-03 0. 0. 0. 0. 0. 0. 0. 0. 0. 0. 1.41843967e-03 0. 0.
      0. 0. 0. 0. 0. 0. 8.51063803e-03 0. 5.67375869e-03 0.
      1.41843967e-03 0. 0. 0. 0. 0. 4.25531901e-03 0. 0. 0. 0. 0. 0.
      1.41843967e-03 0. 0. 0. 1.41843967e-03 0. 0. 0. 0. 0. 0. 0. 0. 0.
      0. 0. 0. 0. 0. 8.51063803e-03 1.41843967e-03 5.67375869e-03 0. 0.
      0. 0. 0. 1.41843967e-03 0. 0. 2.83687934e-03 0. 0. 1.41843967e-03
      0. 0. 1.41843967e-03 0. 0. 0. 1.41843967e-03 0. 0. 2.83687934e-03
      0. 0. 0. 0. 1.41843967e-03 0. 8.51063803e-03 0. 0. 0. 0. 0. 0. 0.
      7.09219836e-03 0. 1.41843967e-03 0. 0. 0. 0. 1.41843967e-03
      2.83687934e-03 5.67375869e-03 1.41843967e-03 4.25531901e-03 0. 0.
      0. 0. 0. 0. 0. 0. 0. 0. 0. 0. 0. 0. 0. 1.41843967e-03 0. 0.
      1.41843967e-03 1.41843967e-03 0. 0. 0. 0. 0. 0. 4.25531901e-03 0.
      0. 0. 0. 0. 0. 0. 0. 1.41843967e-03 0. 0. 0. 4.25531901e-03 0. 0.
      0. 0. 0. 0. 0. 0. 2.83687934e-03 1.41843967e-03 0. 0. 0. 0. 0.
      2.83687934e-03 0. 0. 0. 0. 0. 2.83687934e-03 0. 0. 1.41843967e-03
      0. 0. 9.92907770e-03 0. 1.41843967e-03 1.41843967e-03
      1.41843967e-03 0. 0. 0. 0. 0. 0. 0. 2.83687934e-03 0. 0. 0. 0. 0.
      4.25531901e-03 0. 1.41843967e-03 1.41843967e-03 0. 0. 0.
      9.92907770e-03 2.55319141e-02 0. 0. 0. 7.09219836e-03 0. 0.
      4.25531901e-03 2.83687934e-03 0. 0. 0. 0. 8.51063803e-03
      1.41843967e-03 1.84397157e-02 0. 1.41843967e-03 0. 0. 0.
      1.41843967e-03 0. 0. 0. 0. 0. 0. 0. 0. 0. 0. 0. 4.25531901e-03
      1.41843967e-03 0. 0. 1.41843967e-03 0. 0. 0. 0. 0. 9.92907770e-03
      1.41843967e-03 0. 0. 2.83687934e-03 0. 0. 2.83687934e-03 0.
      2.83687934e-03 0. 0. 1.13475174e-02 0. 1.41843967e-03
      1.41843967e-03 0. 1.41843967e-03 0. 2.83687934e-03 0. 0. 0. 0.
      2.83687934e-03 0. 1.41843967e-03 0. 0. 0. 0. 1.27659570e-02
      2.83687934e-03 1.41843967e-03 0. 0. 0. 0. 0. 0. 0. 0. 0. 0. 0. 0.
      0. 0. 8.51063803e-03 0. 0. 0. 7.09219836e-03 0. 0. 0. 0. 0. 0. 0.
      5.67375869e-03 8.51063803e-03 0. 0. 0. 0. 0. 0. 0. 0.
      1.41843967e-03 0. 5.67375869e-03 4.25531901e-03 0. 0.
      2.83687934e-03 0. 1.13475174e-02 0. 0. 0. 0. 0. 1.41843967e-03
      1.41843967e-03 8.51063803e-03 9.92907770e-03 4.25531901e-03 0. 0.
      0. 0. 2.83687934e-03 1.41843967e-03 0. 0. 0. 0. 0. 0. 0. 0. 0. 0.
      0. 2.83687934e-03 0. 0. 0. 0. 0. 0. 0. 0. 0. 1.41843967e-03 0. 0.
      0. 0. 0. 0. 0. 1.41843967e-03 0. 0. 0. 0. 0. 5.67375869e-03 0. 0.
      0. 0. 0. 0. 0. 0. 0. 0. 0. 0. 1.41843967e-03 0. 4.25531901e-03 0.
      0. 1.41843967e-03 0. 0. 0. 0. 0. 0. 0. 0. 4.25531901e-03
      2.83687934e-03 0. 0. 0. 0. 0. 0. 1.41843967e-03 0. 0.
      5.67375869e-03 0. 0. 0. 4.25531901e-03 0. 0. 0. 0. 0. 0. 0.
      2.83687934e-03 0. 0. 1.13475174e-02 0. 0. 2.83687934e-03
      2.83687934e-03 0. 0. 9.92907770e-03 0. 0. 0. 0. 0. 0.
      9.92907770e-03 2.83687934e-03 0. 0. 0. 0. 0. 0. 2.83687934e-03
      1.41843967e-03 0. 1.41843967e-03 1.41843967e-03 1.70212761e-02 0.
      1.41843967e-03 1.41843967e-03 1.41843967e-03 0. 1.41843967e-03
      1.41843967e-03 1.41843967e-03 0. 0. 1.41843967e-03 2.83687934e-03
      0. 1.13475174e-02 0. 0. 0. 0. 0. 0. 0. 0. 0. 4.25531901e-03 0. 0.
      4.25531901e-03 0. 0. 0. 0. 0. 0. 0. 0. 0. 0. 5.67375869e-03
      7.09219836e-03 0. 0. 0. 0. 0. 0. 0. 0. 0. 0. 0. 0. 0. 0. 0. 0. 0.
      0. 0. 0. 0. 2.83687934e-03 0. 0. 0. 0. 0. 4.25531901e-03
      2.83687934e-03 0. 0. 1.41843967e-03 0. 0. 1.41843967e-03 0. 0. 0.
      0. 0. 0. 7.09219836e-03 7.09219836e-03 1.41843967e-03 0.
      4.25531901e-03 0. 0. 1.41843967e-03 0. 0. 0. 0. 2.83687934e-03 0.
      0. 0. 0. 0. 0. 0. 0. 0. 0. 0. 7.09219836e-03 0. 1.41843967e-03 0.
      0. 0. 7.09219836e-03 0. 0. 1.41843967e-03 5.67375869e-03 0. 0. 0.
      0. 0. 0. 0. 0. 0. 0. 1.41843967e-03 1.41843967e-03 0. 0. 0. 0. 0.
      0. 0. 0. 1.41843967e-03 0. 7.09219836e-03 0. 0. 1.41843967e-03 0.
      0. 0. 1.41843967e-03 0. 0. 1.41843967e-03 1.41843967e-03 0. 0. 0.
      1.41843967e-03 0. 0. 0. 0. 0. 1.41843967e-03 0. 0. 0. 0. 0. 0.
      1.41843967e-03 0. 0. 1.41843967e-03 0. 1.41843967e-03 0. 0. 0.
      1.41843967e-03 1.41843967e-03 1.41843967e-03 0. 0. 0.
      1.41843967e-03 0. 0. 0. 1.41843967e-03 0. 2.83687934e-03 0. 0. 0.
      1.41843967e-03 0. 0. 0. 0. 0. 1.41843967e-03 0. 5.67375869e-03 0.
      0. 0. 1.41843967e-03 2.83687934e-03 0. 0. 0. 0. 0. 0. 0. 0. 0. 0.
      0. 0. 0. 0. 0. 0. 0. 0.</_>
    <_>
      0. 0. 0. 0. 0. 0. 0. 0. 0. 0. 0. 0. 0. 0. 0. 0. 0. 0. 0. 0. 0. 0.
      0. 0. 0. 0. 0. 0. 0. 0. 0. 0. 0. 0. 0. 0. 0. 0. 0. 0. 0. 0. 0. 0.
      0. 0. 0. 1.81818176e-02 0. 0. 0. 0. 0. 0. 0. 0. 0. 0. 0. 0. 0. 0.
      1.81818176e-02 0. 0. 0. 0. 0. 0. 0. 0. 9.09090862e-02 0. 0. 0. 0.
      0. 0. 0. 0. 0. 0. 0. 0. 0. 0. 0. 0. 0. 0. 0. 0. 0. 0. 0. 0. 0. 0.
      0. 0. 0. 0. 0. 0. 0. 0. 0. 0. 0. 0. 0. 0. 0. 0. 0. 0. 0. 0. 0. 0.
      0. 0. 0. 0. 0. 0. 0. 0. 0. 0. 0. 0. 0. 0. 0. 0. 0. 0. 0. 0. 0. 0.
      0. 0. 0. 0. 0. 0. 0. 0. 0. 0. 0. 3.63636352e-02 0. 0. 0. 0. 0. 0.
      0. 0. 3.63636352e-02 0. 0. 0. 0. 0. 0. 0. 0. 0. 0. 0. 0. 0. 0. 0.
      0. 0. 0. 0. 0. 0. 3.63636352e-02 0. 0. 1.81818176e-02 0. 0. 0. 0.
      0. 0. 0. 0. 0. 0. 0. 0. 0. 0. 0. 0. 0. 0. 0. 0. 0. 0. 0. 0. 0. 0.
      0. 0. 0. 0. 0. 0. 1.81818176e-02 0. 0. 0. 0. 0. 0. 0. 0. 0. 0. 0.
      0. 0. 0. 0. 0. 0. 0. 0. 0. 0. 0. 0. 0. 0. 0. 0. 0. 0. 0. 0. 0. 0.
      0. 0. 0. 0. 0. 0. 0. 0. 0. 0. 0. 0. 0. 0. 0. 0. 0. 0. 0. 0. 0. 0.
      0. 3.63636352e-02 0. 0. 0. 0. 1.81818176e-02 0. 0. 0. 0. 0. 0. 0.
      0. 0. 0. 0. 0. 0. 1.81818176e-02 0. 0. 0. 0. 0. 0. 0. 0. 0. 0. 0.
      0. 0. 0. 0. 0. 0. 0. 0. 0. 0. 0. 0. 0. 0. 0. 0. 0. 0. 0. 0. 0. 0.
      0. 0. 0. 0. 0. 0. 0. 0. 0. 0. 0. 0. 0. 0. 1.81818176e-02 0. 0. 0.
      0. 0. 0. 0. 0. 0. 0. 0. 0. 0. 0. 0. 0. 0. 0. 0. 0. 0. 0. 0. 0. 0.
      0. 0. 0. 0. 0. 0. 0. 0. 0. 0. 0. 0. 0. 0. 0. 0. 0. 0. 0. 0. 0. 0.
      0. 0. 0. 0. 0. 0. 0. 0. 0. 0. 0. 0. 0. 0. 0. 0. 0. 0. 0. 0. 0.
      1.81818176e-02 0. 0. 0. 0. 0. 0. 0. 0. 0. 0. 0. 0. 0. 0. 0. 0. 0.
      0. 0. 0. 0. 0. 0. 0. 0. 0. 0. 0. 0. 0. 0. 0. 0. 0. 0. 0. 0. 0. 0.
      0. 0. 0. 0. 0. 0. 0. 0. 0. 0. 0. 0. 0. 0. 0. 0. 0. 0. 0. 0. 0. 0.
      0. 0. 0. 0. 0. 0. 0. 0. 0. 0. 0. 0. 0. 0. 0. 0. 0. 1.81818176e-02
      0. 0. 0. 0. 0. 0. 0. 0. 0. 0. 0. 0. 0. 0. 0. 0. 0. 0. 0. 0. 0. 0.
      0. 0. 0. 0. 0. 0. 0. 0. 0. 0. 0. 0. 0. 0. 0. 0. 0. 3.63636352e-02
      0. 0. 0. 0. 0. 0. 0. 0. 0. 0. 0. 0. 0. 0. 0. 0. 0. 0. 0. 0. 0. 0.
      0. 0. 0. 1.81818176e-02 0. 0. 0. 0. 0. 0. 0. 0. 3.63636352e-02 0.
      0. 0. 0. 0. 0. 0. 0. 0. 0. 0. 0. 0. 0. 0. 0. 0. 0. 0. 0. 0. 0. 0.
      0. 0. 0. 0. 0. 0. 0. 1.81818176e-02 0. 0. 0. 0. 0. 0. 0. 0. 0. 0.
      0. 0. 0. 0. 0. 0. 1.81818176e-02 0. 0. 0. 1.81818176e-02 0. 0. 0.
      0. 0. 0. 0. 0. 0. 0. 0. 0. 0. 0. 0. 0. 0. 0. 0. 0. 0. 0. 0. 0. 0.
      0. 0. 0. 0. 0. 0. 0. 0. 0. 3.63636352e-02 1.81818176e-02 0. 0. 0.
      0. 0. 0. 0. 0. 0. 0. 0. 0. 0. 0. 0. 0. 0. 0. 0. 0. 0. 0. 0. 0. 0.
      0. 0. 0. 0. 0. 0. 0. 0. 0. 0. 0. 0. 0. 0. 0. 0. 7.27272704e-02 0.
      0. 0. 0. 0. 0. 0. 0. 0. 0. 0. 0. 0. 0. 0. 0. 0. 0. 0. 0. 0. 0. 0.
      0. 0. 0. 0. 0. 0. 0. 0. 0. 0. 0. 0. 0. 0. 0. 0. 0. 0.
      3.63636352e-02 0. 0. 0. 0. 0. 0. 0. 0. 0. 0. 0. 0. 0.
      1.81818176e-02 0. 0. 0. 9.09090862e-02 0. 0. 0. 0. 0. 0. 0. 0. 0.
      0. 0. 0. 0. 0. 0. 0. 0. 0. 0. 0. 0. 0. 0. 0. 0. 0. 0. 0. 0. 0. 0.
      0. 0. 1.09090909e-01 0. 0. 0. 0. 0. 0. 0. 0. 0. 0. 0. 0. 0. 0. 0.
      0. 0. 0. 0. 0. 0. 0. 0. 0. 0. 0. 0. 0. 0. 0. 0. 0. 0. 0. 0. 0. 0.
      0. 0. 0. 0. 0. 0. 0. 0. 0. 0. 0. 0. 0. 0. 0. 0. 0. 0. 0. 0. 0. 0.
      0. 0. 0. 0. 0. 0. 0. 1.81818176e-02 0. 0. 0. 0. 0. 0. 0. 0. 0. 0.
      0. 0. 0. 0. 0. 0. 0. 0. 0. 0. 0. 0. 0. 3.63636352e-02 0. 0. 0. 0.
      0. 1.81818176e-02 0. 0. 0. 0. 0. 0. 0. 0. 0. 0. 0. 0. 0. 0. 0. 0.
      0. 0. 0. 0. 0. 0. 0. 0. 0. 0. 0. 0. 0. 0. 0. 0. 0. 0. 0. 0. 0. 0.
      0. 0. 0. 0. 0. 0. 0. 0. 0. 0. 0. 0. 0. 0. 0. 0. 0. 0. 0. 0. 0. 0.
      0. 0. 0. 0. 0. 0. 0. 0. 0. 0. 0. 0. 0. 0. 0. 0. 0. 0. 0. 0. 0. 0.
      0. 0. 0. 0. 0. 0. 0. 0. 0. 0. 0. 0. 0. 0. 0. 0. 0. 0. 0. 0. 0. 0.
      0. 0. 0. 0. 0. 0. 0.</_></uncompressed_support_vectors>
  <decision_functions>
    <_>
      <sv_count>1</sv_count>
      <rho>1.0010529770806897e+00</rho>
      <alpha>
        1.</alpha>
      <index>
        0</index></_></decision_functions></opencv_ml_svm>
</opencv_storage>
