<?xml version="1.0"?>
<opencv_storage>
<opencv_ml_svm>
  <format>3</format>
  <svmType>C_SVC</svmType>
  <kernel>
    <type>LINEAR</type></kernel>
  <C>1.</C>
  <term_criteria><iterations>100</iterations></term_criteria>
  <var_count>1000</var_count>
  <class_count>2</class_count>
  <class_labels type_id="opencv-matrix">
    <rows>2</rows>
    <cols>1</cols>
    <dt>i</dt>
    <data>
      -1 1</data></class_labels>
  <sv_total>1</sv_total>
  <support_vectors>
    <_>
      3.46507324e-04 9.96208517e-04 6.49701222e-04 3.89820721e-04
      7.79641443e-04 -8.12051818e-04 1.16946222e-03 9.96208517e-04
      -3.43236420e-03 -2.27380497e-03 9.96208517e-04 5.63074427e-04
      9.09581722e-04 7.79641443e-04 5.19761001e-04 8.22954869e-04
      5.19761001e-04 1.42934278e-03 -8.12081713e-03 7.36328075e-04
      6.06387854e-04 7.36328075e-04 1.21277571e-03 1.29940244e-03
      -1.42601207e-02 1.38602930e-03 9.09581722e-04 6.06387854e-04
      9.52895090e-04 9.96208517e-04 9.09581722e-04 9.52895090e-04
      1.21277571e-03 -1.02861889e-03 6.49701222e-04 7.79641443e-04
      -9.74790368e-04 -2.01392453e-03 1.21277571e-03 1.03952200e-03
      3.89820721e-04 6.49701222e-04 -2.48977478e-04 1.03952200e-03
      -2.01392453e-03 -2.05723778e-03 -3.76796839e-03 8.66268296e-04
      8.22954869e-04 2.16567074e-04 8.66268296e-04 4.76447545e-04
      -4.65544552e-04 8.66268296e-04 7.79641443e-04 1.25608908e-03
      9.96208517e-04 1.12614885e-03 4.00723831e-04 -2.92290817e-04
      1.51596963e-03 -3.35604273e-04 -2.23049149e-03 1.16946222e-03
      3.50012240e-04 6.93014648e-04 1.47265615e-03 1.16946222e-03
      6.93014648e-04 7.29037449e-03 9.09581722e-04 8.22954869e-04
      -2.01392453e-03 4.33134148e-04 4.76447545e-04 1.47265615e-03
      1.25608908e-03 5.63074427e-04 8.22954869e-04 9.96208517e-04
      7.36328075e-04 6.93014648e-04 4.76447545e-04 -1.92729756e-03
      1.34271581e-03 2.68543162e-03 -1.07193238e-03 8.22954869e-04
      9.52895090e-04 4.33134148e-04 4.33134148e-04 7.79641443e-04
      -2.18542572e-03 -9.32268985e-03 -3.82218487e-03 2.61632929e-04
      -7.77431019e-03 1.51596963e-03 9.09581722e-04 -4.80749039e-03
      1.38602930e-03 1.12614885e-03 -2.23049149e-03 6.93014648e-04
      1.29940244e-03 1.03952200e-03 6.93014648e-04 1.51596963e-03
      1.42934278e-03 7.79641443e-04 1.12614885e-03 -2.14386475e-03
      1.21277571e-03 1.34271581e-03 9.09581722e-04 -3.43236420e-03
      -4.22231096e-04 4.76447545e-04 5.19761001e-04 4.76447545e-04
      -6.82111597e-04 8.66268296e-04 -2.49037193e-03 6.49701222e-04
      6.06387854e-04 1.81916344e-03 5.19761001e-04 9.96208517e-04
      1.12614885e-03 -6.38798228e-04 -8.12051818e-04 -8.80292896e-03
      -1.62350654e-04 5.63074427e-04 -6.60484796e-03 3.03193927e-04
      6.93014648e-04 1.08283537e-03 6.93014648e-04 6.49701222e-04
      9.96208517e-04 8.66268296e-04 1.38602930e-03 1.38602930e-03
      6.06387854e-04 4.76447545e-04 8.66268296e-04 9.96208517e-04
      9.09581722e-04 6.49701222e-04 5.63074427e-04 6.49701222e-04
      8.22954869e-04 -8.55365244e-04 1.03952200e-03 9.52895090e-04
      1.03952200e-03 -4.65544552e-04 3.03193927e-04 1.12614885e-03
      -2.34952872e-03 1.29940244e-03 -1.49416353e-03 9.96208517e-04
      1.42934278e-03 7.79641443e-04 1.64590974e-03 1.16946222e-03
      7.79641443e-04 8.22954869e-04 1.25608908e-03 1.47265615e-03
      -1.06545025e-02 1.86247681e-03 1.08283537e-03 9.96208517e-04
      1.16946222e-03 7.36328075e-04 8.22954869e-04 -1.19037191e-04
      6.93014648e-04 1.90579018e-03 1.12614885e-03 -1.01771590e-03
      1.29940250e-04 7.36328075e-04 5.63074427e-04 9.96208517e-04
      -1.92729756e-03 1.21277571e-03 3.89820721e-04 1.12614885e-03
      1.16946222e-03 4.76447545e-04 1.60259637e-03 1.08283537e-03
      1.12614885e-03 1.16946222e-03 1.16946222e-03 -6.82111597e-04
      9.09581722e-04 5.63074427e-04 1.25608908e-03 1.25608908e-03
      5.63074427e-04 6.49701222e-04 6.49701222e-04 9.52895090e-04
      -1.88398419e-03 5.42164489e-05 1.34271581e-03 5.19761001e-04
      -8.12051818e-04 5.19761001e-04 1.03952200e-03 4.76447545e-04
      1.47265615e-03 6.49701222e-04 -1.24518597e-03 -6.48581050e-03
      6.49701222e-04 -6.91894488e-03 -7.25425023e-04 1.09030880e-05
      5.19761001e-04 4.76447545e-04 8.66268296e-04 1.03952200e-03
      8.66268310e-05 7.36328075e-04 1.03952200e-03 8.22954869e-04
      -1.84067083e-03 1.21277571e-03 -2.31711823e-03 8.22954869e-04
      1.86247681e-03 -7.68738450e-04 6.06387854e-04 9.52895090e-04
      1.51596963e-03 8.66268296e-04 8.22954869e-04 9.96208517e-04
      9.09581722e-04 3.89820721e-04 1.38602930e-03 9.52895090e-04
      4.76447545e-04 -9.41992097e-04 1.60259637e-03 1.03952200e-03
      1.03952200e-03 7.36328075e-04 -1.88398419e-03 3.46507324e-04
      7.79641443e-04 1.03952200e-03 -2.48977478e-04 -3.99368629e-03
      1.12614885e-03 1.21277571e-03 -2.31711823e-03 9.96208517e-04
      6.49701222e-04 1.16946222e-03 1.08283537e-03 -5.52171376e-04
      1.73253662e-04 4.87350539e-04 1.86247681e-03 1.16946222e-03
      8.66268296e-04 6.06387854e-04 -3.95037280e-03 6.06387854e-04
      1.08283537e-03 9.52895090e-04 -9.40239639e-04 6.06387854e-04
      -7.25425023e-04 7.36328075e-04 6.49701222e-04 8.22954869e-04
      6.06387854e-04 8.66268296e-04 7.36328075e-04 7.79641443e-04
      6.06387854e-04 1.08283537e-03 9.96208517e-04 8.22954869e-04
      8.22954869e-04 -1.92729756e-03 7.79641443e-04 4.33134148e-04
      6.06387854e-04 -7.57238304e-05 7.36328075e-04 9.52895090e-04
      -5.95484802e-04 5.19761001e-04 1.29940244e-03 4.33134148e-04
      5.63074427e-04 9.96208517e-04 -4.65544552e-04 8.66268310e-05
      4.76447545e-04 5.19761001e-04 9.52895090e-04 7.79641443e-04
      -4.22231096e-04 -8.55365244e-04 8.22954869e-04 -2.31711823e-03
      7.79641443e-04 1.03952200e-03 1.08283537e-03 5.19761001e-04
      -7.57238304e-05 4.76447545e-04 7.79641443e-04 1.34271581e-03
      6.06387854e-04 5.63074427e-04 8.22954869e-04 7.79641443e-04
      5.63074427e-04 -4.89411736e-03 9.96208517e-04 8.66268296e-04
      6.93014648e-04 7.79641443e-04 4.33134148e-04 5.63074427e-04
      8.66268296e-04 6.06387854e-04 -7.89334718e-03 1.47265615e-03
      1.29940244e-03 1.47265615e-03 6.93014648e-04 1.16946222e-03
      9.96208517e-04 9.09581722e-04 1.51596963e-03 1.16946222e-03
      4.33134148e-04 7.79641443e-04 5.63074427e-04 7.79641443e-04
      1.55928289e-03 -5.95484802e-04 8.66268296e-04 1.86247681e-03
      7.36328075e-04 1.21277571e-03 -7.90249743e-03 -6.82111597e-04
      -3.47567745e-03 9.96208517e-04 6.93014648e-04 -3.78917641e-04
      -7.25425023e-04 6.93014648e-04 5.63074427e-04 -2.53368542e-03
      -3.93698029e-02 1.08283537e-03 4.76447545e-04 1.47265615e-03
      4.76447545e-04 1.42934278e-03 6.06387854e-04 3.89820721e-04
      -1.25927031e-02 5.63074427e-04 -2.48977478e-04 5.19761001e-04
      9.09581722e-04 9.09581722e-04 9.96208517e-04 -2.44705868e-03
      6.93014648e-04 4.76447545e-04 5.19761001e-04 4.76447545e-04
      9.52895090e-04 -3.25911050e-03 6.93014648e-04 -3.04254331e-03
      8.22954869e-04 2.54634093e-03 9.09581722e-04 9.96208517e-04
      6.93014648e-04 4.33134148e-04 1.21277571e-03 1.64590974e-03
      4.76447545e-04 1.25608908e-03 1.38602930e-03 -6.61575096e-03
      -2.40374519e-03 1.21277571e-03 -2.49037193e-03 5.63074427e-04
      4.33134148e-04 6.06387854e-04 8.66268296e-04 6.93014648e-04
      6.06387854e-04 1.12614885e-03 1.25608908e-03 5.19761001e-04
      -3.51899094e-03 -3.35604273e-04 1.94910378e-03 -8.03419016e-03
      9.09581722e-04 1.29940244e-03 3.46507324e-04 1.03952200e-03
      8.66268296e-04 -7.47111579e-03 -5.52171376e-04 -3.77711910e-03
      -5.08857949e-04 -2.57699890e-03 7.36328075e-04 -3.77887138e-03
      8.66268296e-04 5.19761001e-04 -5.95484802e-04 1.68922322e-03
      5.63074427e-04 2.29561096e-03 -8.12051818e-04 2.59880500e-04
      -1.10876365e-02 1.12614885e-03 1.03952200e-03 -1.88398419e-03
      7.36328075e-04 -2.36043171e-03 7.36328075e-04 -2.36043171e-03
      -2.40374519e-03 -5.08857949e-04 9.09581722e-04 4.76447545e-04
      -9.41992097e-04 9.09581722e-04 6.49701222e-04 1.12614885e-03
      1.21277571e-03 4.76447545e-04 1.55928289e-03 -2.23049149e-03
      -5.08857949e-04 1.60259637e-03 -1.97061105e-03 1.73253662e-04
      1.03952200e-03 8.66268296e-04 -3.35604273e-04 9.96208517e-04
      8.22954869e-04 6.93014648e-04 7.79641443e-04 1.25608908e-03
      9.09581722e-04 1.03952200e-03 1.51596963e-03 7.79641443e-04
      -6.82111597e-04 6.93014648e-04 -8.20744410e-03 6.49701222e-04
      3.46507324e-04 1.03952200e-03 -6.83231791e-03 -3.35604273e-04
      1.47265615e-03 5.19761001e-04 9.96208517e-04 -1.88398419e-03
      1.08283537e-03 3.03193927e-04 1.21277571e-03 4.76447545e-04
      9.52895090e-04 1.25608908e-03 -4.65544552e-04 3.79152689e-03
      1.03952200e-03 -1.62350654e-04 6.06387854e-04 1.25608908e-03
      -9.49419104e-03 1.16946222e-03 -5.52171376e-04 9.96208517e-04
      9.52895090e-04 9.09581722e-04 3.03193927e-04 5.63074427e-04
      1.38602930e-03 9.09581722e-04 6.49701222e-04 0. 8.66268296e-04
      8.66268296e-04 5.19761001e-04 1.21277571e-03 -4.22231096e-04
      3.89820721e-04 6.06387854e-04 7.36328075e-04 8.66268296e-04
      2.16567074e-04 -5.95484802e-04 -8.55365244e-04 6.93014648e-04
      6.49701222e-04 8.22954869e-04 6.06387854e-04 1.03952200e-03
      6.93014648e-04 -4.67579765e-03 1.81916344e-03 1.21277571e-03
      1.42934278e-03 3.18513904e-03 -3.35604273e-04 -9.85305523e-04
      5.63074427e-04 -7.85918441e-03 9.52895090e-04 1.25608908e-03
      9.09581722e-04 1.86247681e-03 4.33134148e-04 -6.74569095e-03
      -1.13366144e-02 6.06387854e-04 -7.38273654e-03 -1.02861889e-03
      5.63074427e-04 1.51596963e-03 -7.25425023e-04 1.21277571e-03
      3.89820721e-04 6.93014648e-04 6.93014648e-04 7.90544436e-04
      4.33134148e-04 1.25608908e-03 4.33134148e-04 -6.38798228e-04
      -3.78917641e-04 7.36328075e-04 1.21277571e-03 1.73253662e-04
      4.33134148e-04 6.49701222e-04 9.96208517e-04 5.19761001e-04
      6.93014648e-04 7.36328075e-04 3.46507324e-04 7.79641443e-04
      -1.20187260e-03 -2.31711823e-03 3.89820721e-04 8.22954869e-04
      1.16946222e-03 2.12235749e-03 -3.95212509e-03 7.36328075e-04
      6.93014648e-04 -1.07193238e-03 9.96208517e-04 4.76447545e-04
      6.06387854e-04 4.76447545e-04 5.63074427e-04 9.09581722e-04
      -1.88398419e-03 1.60259637e-03 6.93014648e-04 7.79641443e-04
      6.49701222e-04 -1.79735734e-03 1.73253662e-04 9.09581722e-04
      7.79641443e-04 6.49701222e-04 4.76447545e-04 9.52895090e-04
      9.96208517e-04 -3.47567745e-03 6.49701222e-04 5.63074427e-04
      6.49701222e-04 -4.28772951e-03 5.63074427e-04 9.09581722e-04
      9.09581722e-04 -6.38798228e-04 -1.66741712e-03 -4.22231096e-04
      -7.25425023e-04 -1.07193238e-03 6.93014648e-04 1.42934278e-03
      4.33134148e-04 -8.19868222e-03 8.66268296e-04 -6.35587052e-03
      5.19761001e-04 9.52895090e-04 8.22954869e-04 1.21277571e-03
      -2.44705868e-03 6.06387854e-04 3.46507324e-04 -8.12051818e-04
      -7.25425023e-04 1.94910378e-03 6.93014648e-04 3.03193927e-04
      1.03952200e-03 6.19702460e-03 4.76447545e-04 -2.05723778e-03
      9.96208517e-04 1.03952200e-03 4.33134148e-04 7.36328075e-04
      9.96208517e-04 -1.33181289e-02 1.42934278e-03 -8.55365244e-04
      5.19761001e-04 -4.98074386e-03 1.03952200e-03 -1.45085005e-03
      4.76447545e-04 1.34271581e-03 -5.08857949e-04 -2.18717800e-03
      1.08283537e-03 6.93014648e-04 6.06387854e-04 8.66268296e-04
      2.16567074e-04 3.46507324e-04 -2.18717800e-03 1.51596963e-03
      4.76447545e-04 9.09581722e-04 1.16946222e-03 -4.22231096e-04
      1.42934278e-03 4.76447545e-04 2.59880500e-04 -8.41310807e-03
      9.52895090e-04 3.46507324e-04 1.03952200e-03 9.52895090e-04
      8.22954869e-04 -1.07193238e-03 7.79641443e-04 -3.82218487e-03
      1.51596963e-03 -1.17697483e-02 1.64590974e-03 -4.85080387e-03
      1.03952200e-03 1.08283537e-03 2.16567074e-04 8.22954869e-04
      1.38602930e-03 7.36328075e-04 8.22954869e-04 6.06387854e-04
      6.06387854e-04 1.16946222e-03 5.63074427e-04 6.06387854e-04
      1.64590974e-03 -2.95591657e-03 6.49701222e-04 6.49701222e-04
      -8.12051818e-04 2.70783552e-04 9.52895090e-04 9.52895090e-04
      7.79641443e-04 5.19761001e-04 6.93014648e-04 1.38602930e-03
      8.66268296e-04 1.34271581e-03 8.22954869e-04 4.33134148e-04
      1.03952200e-03 7.36328075e-04 -6.82111597e-04 7.79641443e-04
      -2.05723778e-03 9.09581722e-04 3.89820721e-04 -1.02861889e-03
      7.79641443e-04 8.66268296e-04 1.68922322e-03 9.09581722e-04
      1.12614885e-03 -2.23049149e-03 -3.34573723e-03 1.12614885e-03
      -4.11272328e-03 9.96208517e-04 6.49701222e-04 -1.84067083e-03
      -7.25425023e-04 -2.27380497e-03 6.49701222e-04 -4.76417691e-03
      1.03952200e-03 1.29940244e-03 7.79641443e-04 -8.55365244e-04
      -6.87563140e-03 -1.07193238e-03 9.52895090e-04 3.46507324e-04
      -2.31711823e-03 4.76447545e-04 1.29940244e-03 6.49701222e-04
      -2.10055127e-03 -8.67123622e-03 -1.75404397e-03 7.79641443e-04
      -6.82111597e-04 4.76447545e-04 6.93014648e-04 6.06387854e-04
      -4.65544552e-04 1.34271581e-03 1.03952200e-03 -1.02861889e-03
      1.60259637e-03 6.93014648e-04 1.47265615e-03 -3.56230442e-03
      -5.02405735e-03 -4.98074386e-03 9.96208517e-04 1.81916344e-03
      6.49701222e-04 7.79641443e-04 9.52895090e-04 1.12614885e-03
      -1.40753656e-03 6.49701222e-04 9.96208517e-04 8.22954869e-04
      6.93014648e-04 4.33134148e-04 6.06387854e-04 4.33134148e-04
      1.21277571e-03 1.08283537e-03 5.63074427e-04 9.09581722e-04
      1.29940244e-03 1.29940244e-03 -3.16897873e-03 5.63074427e-04
      1.03952200e-03 8.22954869e-04 4.33134148e-04 9.96208517e-04
      4.33134148e-04 1.90579018e-03 7.79641443e-04 7.79641443e-04
      6.49701222e-04 5.63074427e-04 -7.68738450e-04 1.38602930e-03
      4.33134155e-05 1.17461002e-02 1.16946222e-03 -4.98074386e-03
      9.96208517e-04 -8.03419016e-03 -4.65544552e-04 8.22954869e-04
      1.55928289e-03 9.09581722e-04 1.68922322e-03 9.52895090e-04
      -3.86549835e-03 4.33134155e-05 4.76447545e-04 -6.38798228e-04
      -2.10055127e-03 -9.85305523e-04 5.19761001e-04 5.63074427e-04
      -5.32725127e-03 4.76447545e-04 7.36328075e-04 4.33134148e-04
      9.96208517e-04 2.59880500e-04 4.76447545e-04 6.93014648e-04
      9.96208517e-04 8.22954869e-04 9.52895090e-04 -7.25425023e-04
      6.49701222e-04 9.96208517e-04 8.22954869e-04 1.03952200e-03
      2.59880500e-04 1.42934278e-03 5.19761001e-04 -1.07193238e-03
      1.38602930e-03 1.08283537e-03 1.29940250e-04 6.06387854e-04
      6.06387854e-04 -8.12051818e-04 3.03193927e-04 1.34271581e-03
      1.99241703e-03 5.19761001e-04 8.22954869e-04 5.19761001e-04
      6.93014648e-04 3.89820721e-04 1.68922322e-03 6.51453680e-04
      5.19761001e-04 1.12614885e-03 7.36328075e-04 -8.12051818e-04
      7.36328075e-04 1.51596963e-03 -2.70693912e-03 6.09892712e-04
      5.63074427e-04 -2.31711823e-03 1.21277571e-03 7.79641443e-04
      1.29940244e-03 -7.25425023e-04 1.25608908e-03 3.46507324e-04
      1.68922322e-03 3.46507324e-04 4.76447545e-04 8.66268296e-04
      -7.68738450e-04 -1.11524574e-03 8.66268296e-04 6.06387854e-04
      -1.07193238e-03 5.19761001e-04 -2.53193290e-03 8.22954869e-04
      6.49701222e-04 -7.25425023e-04 5.19761001e-04 7.36328075e-04
      8.22954869e-04 1.16946222e-03 1.38602930e-03 -3.77887138e-03
      -3.69224465e-03 2.38223770e-03 -2.74850009e-03 8.66268296e-04
      -3.35604273e-04 5.63074427e-04 3.46507324e-04 -2.48977478e-04
      6.49701222e-04 1.64590974e-03 5.63074427e-04 5.19761001e-04
      -5.02405735e-03 1.93995307e-03 9.09581722e-04 9.52895090e-04
      5.19761001e-04 8.22954869e-04 4.76447545e-04 4.76447545e-04
      -5.31634828e-03 8.22954869e-04 -2.10055127e-03 7.36328075e-04
      -7.25425023e-04 -5.08857949e-04 1.09030880e-05 3.46507324e-04
      3.27176601e-03 7.79641443e-04 1.34271581e-03 1.16946222e-03
      -6.82111597e-04 -5.08857949e-04 9.52895090e-04 1.12614885e-03
      -2.01392453e-03 -9.41992097e-04 9.52895090e-04 2.16567074e-04
      9.52895090e-04 5.63074427e-04 1.34271581e-03 -2.57699890e-03
      2.33892445e-03 5.63074427e-04 1.42934278e-03 9.09581722e-04
      1.25608908e-03 5.63074427e-04 1.12614885e-03 -6.70062518e-03
      3.89820721e-04 -8.12051818e-04 6.93014648e-04 4.33134148e-04
      3.89820721e-04 -2.49037193e-03 -2.79356586e-03 1.29940244e-03
      1.08283537e-03 6.93014648e-04 9.52895090e-04 3.03193927e-04
      -9.26847290e-03 8.22954869e-04 -2.05664008e-04 1.38602930e-03
      5.19761001e-04 -6.82111597e-04 5.63074427e-04 9.09581722e-04
      5.19761001e-04 2.59880500e-04 -1.11524574e-03 6.06387854e-04
      9.52895090e-04 4.33134148e-04 1.12614885e-03 4.76447545e-04
      3.89820721e-04 4.76447545e-04 8.66268296e-04 -7.57238304e-05
      6.06387854e-04 4.76447545e-04 1.21277571e-03 6.93014648e-04
      1.47265615e-03 8.66268296e-04 1.77585008e-03 7.36328075e-04
      6.06387854e-04 4.33134148e-04 -3.86374583e-03 6.06387854e-04
      6.93014648e-04 -5.52171376e-04 -1.07193238e-03 9.09581722e-04
      -2.10055127e-03 1.12614885e-03 6.06387854e-04 6.06387854e-04
      9.52895090e-04 5.19761001e-04 9.96208517e-04 -4.03875206e-03
      9.96208517e-04 -7.25425023e-04 1.47265615e-03</_></support_vectors>
  <uncompressed_sv_total>3</uncompressed_sv_total>
  <uncompressed_support_vectors>
    <_>
      0. 0. 0. 0. 0. 1.41843967e-03 0. 0. 4.25531901e-03 2.83687934e-03
      0. 0. 0. 0. 0. 0. 0. 0. 8.51063803e-03 0. 0. 0. 0. 0.
      1.56028364e-02 0. 0. 0. 0. 0. 0. 0. 0. 1.41843967e-03 0. 0.
      1.84397157e-02 2.83687934e-03 0. 0. 0. 0. 1.41843967e-03 0.
      2.83687934e-03 2.83687934e-03 5.67375869e-03 0. 0. 0. 0. 0.
      1.41843967e-03 0. 0. 0. 0. 0. 1.41843967e-03 1.41843967e-03 0.
      1.41843967e-03 2.83687934e-03 0. 5.67375869e-03 0. 0. 0. 0.
      1.70212761e-02 0. 0. 2.83687934e-03 0. 0. 0. 0. 0. 0. 0. 0. 0. 0.
      2.83687934e-03 0. 0. 1.41843967e-03 0. 0. 0. 0. 0. 5.67375869e-03
      9.92907770e-03 4.25531901e-03 2.83687934e-03 8.51063803e-03 0. 0.
      5.67375869e-03 0. 0. 2.83687934e-03 0. 0. 0. 0. 0. 0. 0. 0.
      2.83687934e-03 0. 0. 0. 4.25531901e-03 1.41843967e-03 0. 0. 0.
      1.41843967e-03 0. 2.83687934e-03 0. 0. 0. 0. 0. 0. 1.41843967e-03
      1.41843967e-03 9.92907770e-03 1.41843967e-03 0. 8.51063803e-03 0.
      0. 0. 0. 0. 0. 0. 0. 0. 0. 0. 0. 0. 0. 0. 0. 0. 0. 1.41843967e-03
      0. 0. 0. 1.41843967e-03 0. 0. 4.25531901e-03 0. 2.83687934e-03 0.
      0. 0. 0. 0. 0. 0. 0. 0. 1.13475174e-02 0. 0. 0. 0. 0. 0.
      1.41843967e-03 0. 0. 0. 2.83687934e-03 0. 0. 0. 0. 2.83687934e-03
      0. 0. 0. 0. 0. 0. 0. 0. 0. 0. 1.41843967e-03 0. 0. 0. 0. 0. 0. 0.
      0. 2.83687934e-03 1.41843967e-03 0. 0. 1.41843967e-03 0. 0. 0. 0.
      0. 1.41843967e-03 7.09219836e-03 0. 7.09219836e-03 1.41843967e-03
      1.41843967e-03 0. 0. 0. 0. 0. 0. 0. 0. 2.83687934e-03 0.
      2.83687934e-03 0. 0. 1.41843967e-03 0. 0. 0. 0. 0. 0. 0. 0. 0. 0.
      0. 1.41843967e-03 0. 0. 0. 0. 2.83687934e-03 0. 0. 0.
      1.41843967e-03 7.09219836e-03 0. 0. 2.83687934e-03 0. 0. 0. 0.
      1.41843967e-03 0. 1.41843967e-03 0. 0. 0. 0. 7.09219836e-03 0. 0.
      0. 4.25531901e-03 0. 1.41843967e-03 0. 0. 0. 0. 0. 0. 0. 0. 0. 0.
      0. 0. 2.83687934e-03 0. 0. 0. 1.41843967e-03 0. 0. 1.41843967e-03
      0. 0. 0. 0. 0. 1.41843967e-03 0. 0. 0. 0. 0. 1.41843967e-03
      1.41843967e-03 0. 2.83687934e-03 0. 0. 0. 0. 1.41843967e-03 0. 0.
      0. 0. 0. 0. 0. 0. 5.67375869e-03 0. 0. 0. 0. 0. 0. 0. 0.
      9.92907770e-03 0. 0. 0. 0. 0. 0. 0. 0. 0. 0. 0. 0. 0. 0.
      1.41843967e-03 0. 0. 0. 0. 1.13475174e-02 1.41843967e-03
      4.25531901e-03 0. 0. 1.41843967e-03 1.41843967e-03 0. 0.
      2.83687934e-03 3.97163108e-02 0. 0. 0. 0. 0. 0. 0. 1.27659570e-02
      0. 1.41843967e-03 0. 0. 0. 0. 2.83687934e-03 0. 0. 0. 0. 0.
      4.25531901e-03 0. 4.25531901e-03 0. 1.41843967e-03 0. 0. 0. 0. 0.
      0. 0. 0. 0. 7.09219836e-03 2.83687934e-03 0. 2.83687934e-03 0. 0.
      0. 0. 0. 0. 0. 0. 0. 4.25531901e-03 1.41843967e-03 0.
      8.51063803e-03 0. 0. 0. 0. 0. 8.51063803e-03 1.41843967e-03
      7.09219836e-03 1.41843967e-03 2.83687934e-03 0. 4.25531901e-03 0.
      0. 1.41843967e-03 0. 0. 0. 1.41843967e-03 0. 1.13475174e-02 0. 0.
      2.83687934e-03 0. 2.83687934e-03 0. 2.83687934e-03 2.83687934e-03
      1.41843967e-03 0. 0. 1.41843967e-03 0. 0. 0. 0. 0. 0.
      2.83687934e-03 1.41843967e-03 0. 2.83687934e-03 0. 0. 0.
      1.41843967e-03 0. 0. 0. 0. 0. 0. 0. 0. 0. 1.41843967e-03 0.
      8.51063803e-03 0. 0. 0. 7.09219836e-03 1.41843967e-03 0. 0. 0.
      2.83687934e-03 0. 0. 0. 0. 0. 0. 1.41843967e-03 0. 0.
      1.41843967e-03 0. 0. 1.27659570e-02 0. 1.41843967e-03 0. 0. 0. 0.
      0. 0. 0. 0. 0. 0. 0. 0. 0. 1.41843967e-03 0. 0. 0. 0. 0.
      1.41843967e-03 1.41843967e-03 0. 0. 0. 0. 0. 0. 8.51063803e-03 0.
      0. 0. 0. 1.41843967e-03 1.41843967e-03 0. 1.13475174e-02 0. 0. 0.
      0. 0. 7.09219836e-03 1.27659570e-02 0. 1.13475174e-02
      1.41843967e-03 0. 0. 1.41843967e-03 0. 0. 0. 0. 1.41843967e-03 0.
      0. 0. 1.41843967e-03 1.41843967e-03 0. 0. 0. 0. 0. 0. 0. 0. 0. 0.
      0. 1.41843967e-03 2.83687934e-03 0. 0. 0. 0. 4.25531901e-03 0. 0.
      1.41843967e-03 0. 0. 0. 0. 0. 0. 2.83687934e-03 0. 0. 0. 0.
      2.83687934e-03 0. 0. 0. 0. 0. 0. 0. 4.25531901e-03 0. 0. 0.
      5.67375869e-03 0. 0. 0. 1.41843967e-03 2.83687934e-03
      1.41843967e-03 1.41843967e-03 1.41843967e-03 0. 0. 0.
      2.26950347e-02 0. 7.09219836e-03 0. 0. 0. 0. 2.83687934e-03 0. 0.
      1.41843967e-03 1.41843967e-03 0. 0. 0. 0. 0. 0. 2.83687934e-03 0.
      0. 0. 0. 0. 1.41843967e-02 0. 1.41843967e-03 0. 5.67375869e-03 0.
      2.83687934e-03 0. 0. 1.41843967e-03 2.83687934e-03 0. 0. 0. 0. 0.
      0. 2.83687934e-03 0. 0. 0. 0. 1.41843967e-03 0. 0. 0.
      9.92907770e-03 0. 0. 0. 0. 0. 1.41843967e-03 0. 4.25531901e-03 0.
      1.27659570e-02 0. 5.67375869e-03 0. 0. 0. 0. 0. 0. 0. 0. 0. 0. 0.
      0. 0. 4.25531901e-03 0. 0. 1.41843967e-03 1.41843967e-03 0. 0. 0.
      0. 0. 0. 0. 0. 0. 0. 0. 0. 1.41843967e-03 0. 2.83687934e-03 0. 0.
      1.41843967e-03 0. 0. 0. 0. 0. 2.83687934e-03 4.25531901e-03 0.
      8.51063803e-03 0. 0. 2.83687934e-03 1.41843967e-03 2.83687934e-03
      0. 5.67375869e-03 0. 0. 0. 1.41843967e-03 7.09219836e-03
      1.41843967e-03 0. 0. 2.83687934e-03 0. 0. 0. 2.83687934e-03
      1.27659570e-02 2.83687934e-03 0. 1.41843967e-03 0. 0. 0.
      1.41843967e-03 0. 0. 1.41843967e-03 0. 0. 0. 4.25531901e-03
      5.67375869e-03 5.67375869e-03 0. 0. 0. 0. 0. 0. 2.83687934e-03 0.
      0. 0. 0. 0. 0. 0. 0. 0. 0. 0. 0. 0. 9.92907770e-03 0. 0. 0. 0. 0.
      0. 0. 0. 0. 0. 0. 1.41843967e-03 0. 0. 2.83687934e-03 0.
      5.67375869e-03 0. 8.51063803e-03 1.41843967e-03 0. 0. 0. 0. 0.
      4.25531901e-03 0. 0. 1.41843967e-03 2.83687934e-03 1.41843967e-03
      0. 0. 5.67375869e-03 0. 0. 0. 0. 0. 0. 0. 0. 0. 0. 1.41843967e-03
      0. 0. 0. 0. 0. 0. 0. 1.41843967e-03 0. 0. 0. 0. 0. 1.41843967e-03
      0. 0. 0. 0. 0. 0. 0. 0. 0. 2.83687934e-03 0. 0. 0. 1.41843967e-03
      0. 0. 2.83687934e-03 5.67375869e-03 0. 2.83687934e-03 0. 0. 0.
      1.41843967e-03 0. 0. 0. 0. 0. 0. 1.41843967e-03 1.41843967e-03 0.
      0. 1.41843967e-03 0. 5.67375869e-03 0. 0. 1.41843967e-03 0. 0. 0.
      0. 0. 4.25531901e-03 4.25531901e-03 0. 5.67375869e-03 0.
      1.41843967e-03 0. 0. 1.41843967e-03 0. 0. 0. 0. 5.67375869e-03
      1.41843967e-03 0. 0. 0. 0. 0. 0. 7.09219836e-03 0. 2.83687934e-03
      0. 1.41843967e-03 1.41843967e-03 1.41843967e-03 0. 0. 0. 0. 0.
      1.41843967e-03 1.41843967e-03 0. 0. 2.83687934e-03 1.41843967e-03
      0. 0. 0. 0. 0. 2.83687934e-03 0. 0. 0. 0. 0. 0. 0. 9.92907770e-03
      0. 1.41843967e-03 0. 0. 0. 2.83687934e-03 2.83687934e-03 0. 0. 0.
      0. 0. 1.13475174e-02 0. 1.41843967e-03 0. 0. 1.41843967e-03 0. 0.
      0. 0. 1.41843967e-03 0. 0. 0. 0. 0. 0. 0. 0. 1.41843967e-03 0. 0.
      0. 0. 0. 0. 0. 0. 0. 0. 7.09219836e-03 0. 0. 1.41843967e-03
      1.41843967e-03 0. 2.83687934e-03 0. 0. 0. 0. 0. 0. 4.25531901e-03
      0. 1.41843967e-03 0.</_>
    <_>
      4.08309104e-04 1.17388868e-03 7.65579578e-04 4.59347735e-04
      9.18695470e-04 7.14540947e-04 1.37804321e-03 1.17388868e-03
      9.69734101e-04 6.63502316e-04 1.17388868e-03 6.63502316e-04
      1.07181142e-03 9.18695470e-04 6.12463686e-04 9.69734101e-04
      6.12463686e-04 1.68427511e-03 4.59347735e-04 8.67656840e-04
      7.14540947e-04 8.67656840e-04 1.42908189e-03 1.53115916e-03
      1.58219773e-03 1.63323642e-03 1.07181142e-03 7.14540947e-04
      1.12284999e-03 1.17388868e-03 1.07181142e-03 1.12284999e-03
      1.42908189e-03 4.59347735e-04 7.65579578e-04 9.18695470e-04
      1.12284999e-03 9.69734101e-04 1.42908189e-03 1.22492737e-03
      4.59347735e-04 7.65579578e-04 1.37804321e-03 1.22492737e-03
      9.69734101e-04 9.18695470e-04 2.24569999e-03 1.02077273e-03
      9.69734101e-04 2.55193183e-04 1.02077273e-03 5.61424997e-04
      1.12284999e-03 1.02077273e-03 9.18695470e-04 1.48012047e-03
      1.17388868e-03 1.32700463e-03 2.14362284e-03 1.32700463e-03
      1.78635237e-03 1.27596594e-03 7.14540947e-04 1.37804321e-03
      6.12463686e-04 8.16618209e-04 1.73531368e-03 1.37804321e-03
      8.16618209e-04 2.70504784e-03 1.07181142e-03 9.69734101e-04
      9.69734101e-04 5.10386366e-04 5.61424997e-04 1.73531368e-03
      1.48012047e-03 6.63502316e-04 9.69734101e-04 1.17388868e-03
      8.67656840e-04 8.16618209e-04 5.61424997e-04 1.07181142e-03
      1.58219773e-03 3.16439546e-03 4.08309104e-04 9.69734101e-04
      1.12284999e-03 5.10386366e-04 5.10386366e-04 9.18695470e-04
      8.67656840e-04 7.14540947e-04 5.10386366e-04 4.08309104e-04
      8.67656840e-04 1.78635237e-03 1.07181142e-03 1.02077273e-03
      1.63323642e-03 1.32700463e-03 7.14540947e-04 8.16618209e-04
      1.53115916e-03 1.22492737e-03 8.16618209e-04 1.78635237e-03
      1.68427511e-03 9.18695470e-04 1.32700463e-03 8.16618209e-04
      1.42908189e-03 1.58219773e-03 1.07181142e-03 9.69734101e-04
      1.17388868e-03 5.61424997e-04 6.12463686e-04 5.61424997e-04
      8.67656840e-04 1.02077273e-03 4.08309104e-04 7.65579578e-04
      7.14540947e-04 2.14362284e-03 6.12463686e-04 1.17388868e-03
      1.32700463e-03 9.18695470e-04 7.14540947e-04 1.32700463e-03
      1.48012047e-03 6.63502316e-04 2.24569999e-03 3.57270474e-04
      8.16618209e-04 1.27596594e-03 8.16618209e-04 7.65579578e-04
      1.17388868e-03 1.02077273e-03 1.63323642e-03 1.63323642e-03
      7.14540947e-04 5.61424997e-04 1.02077273e-03 1.17388868e-03
      1.07181142e-03 7.65579578e-04 6.63502316e-04 7.65579578e-04
      9.69734101e-04 6.63502316e-04 1.22492737e-03 1.12284999e-03
      1.22492737e-03 1.12284999e-03 3.57270474e-04 1.32700463e-03
      2.24569999e-03 1.53115916e-03 1.58219773e-03 1.17388868e-03
      1.68427511e-03 9.18695470e-04 1.93946820e-03 1.37804321e-03
      9.18695470e-04 9.69734101e-04 1.48012047e-03 1.73531368e-03
      8.16618209e-04 2.19466141e-03 1.27596594e-03 1.17388868e-03
      1.37804321e-03 8.67656840e-04 9.69734101e-04 1.53115916e-03
      8.16618209e-04 2.24569999e-03 1.32700463e-03 2.14362284e-03
      1.53115921e-04 8.67656840e-04 6.63502316e-04 1.17388868e-03
      1.07181142e-03 1.42908189e-03 4.59347735e-04 1.32700463e-03
      1.37804321e-03 5.61424997e-04 1.88842963e-03 1.27596594e-03
      1.32700463e-03 1.37804321e-03 1.37804321e-03 8.67656840e-04
      1.07181142e-03 6.63502316e-04 1.48012047e-03 1.48012047e-03
      6.63502316e-04 7.65579578e-04 7.65579578e-04 1.12284999e-03
      1.12284999e-03 1.73531368e-03 1.58219773e-03 6.12463686e-04
      7.14540947e-04 6.12463686e-04 1.22492737e-03 5.61424997e-04
      1.73531368e-03 7.65579578e-04 2.04154552e-04 7.14540947e-04
      7.65579578e-04 2.04154552e-04 8.16618209e-04 1.68427511e-03
      6.12463686e-04 5.61424997e-04 1.02077273e-03 1.22492737e-03
      1.02077276e-04 8.67656840e-04 1.22492737e-03 9.69734101e-04
      1.17388868e-03 1.42908189e-03 6.12463686e-04 9.69734101e-04
      2.19466141e-03 7.65579578e-04 7.14540947e-04 1.12284999e-03
      1.78635237e-03 1.02077273e-03 9.69734101e-04 1.17388868e-03
      1.07181142e-03 4.59347735e-04 1.63323642e-03 1.12284999e-03
      5.61424997e-04 5.61424997e-04 1.88842963e-03 1.22492737e-03
      1.22492737e-03 8.67656840e-04 1.12284999e-03 4.08309104e-04
      9.18695470e-04 1.22492737e-03 1.37804321e-03 4.08309104e-04
      1.32700463e-03 1.42908189e-03 6.12463686e-04 1.17388868e-03
      7.65579578e-04 1.37804321e-03 1.27596594e-03 1.02077273e-03
      2.04154552e-04 2.24569999e-03 2.19466141e-03 1.37804321e-03
      1.02077273e-03 7.14540947e-04 4.59347735e-04 7.14540947e-04
      1.27596594e-03 1.12284999e-03 6.63502316e-04 7.14540947e-04
      8.16618209e-04 8.67656840e-04 7.65579578e-04 9.69734101e-04
      7.14540947e-04 1.02077273e-03 8.67656840e-04 9.18695470e-04
      7.14540947e-04 1.27596594e-03 1.17388868e-03 9.69734101e-04
      9.69734101e-04 1.07181142e-03 9.18695470e-04 5.10386366e-04
      7.14540947e-04 1.58219773e-03 8.67656840e-04 1.12284999e-03
      9.69734101e-04 6.12463686e-04 1.53115916e-03 5.10386366e-04
      6.63502316e-04 1.17388868e-03 1.12284999e-03 1.02077276e-04
      5.61424997e-04 6.12463686e-04 1.12284999e-03 9.18695470e-04
      1.17388868e-03 6.63502316e-04 9.69734101e-04 6.12463686e-04
      9.18695470e-04 1.22492737e-03 1.27596594e-03 6.12463686e-04
      1.58219773e-03 5.61424997e-04 9.18695470e-04 1.58219773e-03
      7.14540947e-04 6.63502316e-04 9.69734101e-04 9.18695470e-04
      6.63502316e-04 9.18695470e-04 1.17388868e-03 1.02077273e-03
      8.16618209e-04 9.18695470e-04 5.10386366e-04 6.63502316e-04
      1.02077273e-03 7.14540947e-04 2.39881594e-03 1.73531368e-03
      1.53115916e-03 1.73531368e-03 8.16618209e-04 1.37804321e-03
      1.17388868e-03 1.07181142e-03 1.78635237e-03 1.37804321e-03
      5.10386366e-04 9.18695470e-04 6.63502316e-04 9.18695470e-04
      1.83739094e-03 9.69734101e-04 1.02077273e-03 2.19466141e-03
      8.67656840e-04 1.42908189e-03 8.16618209e-04 8.67656840e-04
      9.18695470e-04 1.17388868e-03 8.16618209e-04 1.22492737e-03
      8.16618209e-04 8.16618209e-04 6.63502316e-04 3.57270474e-04
      4.08309104e-04 1.27596594e-03 5.61424997e-04 1.73531368e-03
      5.61424997e-04 1.68427511e-03 7.14540947e-04 4.59347735e-04
      2.04154552e-04 6.63502316e-04 1.37804321e-03 6.12463686e-04
      1.07181142e-03 1.07181142e-03 1.17388868e-03 4.59347735e-04
      8.16618209e-04 5.61424997e-04 6.12463686e-04 5.61424997e-04
      1.12284999e-03 1.17388868e-03 8.16618209e-04 1.42908189e-03
      9.69734101e-04 1.42908189e-03 1.07181142e-03 1.17388868e-03
      8.16618209e-04 5.10386366e-04 1.42908189e-03 1.93946820e-03
      5.61424997e-04 1.48012047e-03 1.63323642e-03 5.61424997e-04
      5.10386366e-04 1.42908189e-03 4.08309104e-04 6.63502316e-04
      5.10386366e-04 7.14540947e-04 1.02077273e-03 8.16618209e-04
      7.14540947e-04 1.32700463e-03 1.48012047e-03 6.12463686e-04
      8.67656840e-04 1.27596594e-03 2.29673879e-03 5.61424997e-04
      1.07181142e-03 1.53115916e-03 4.08309104e-04 1.22492737e-03
      1.02077273e-03 1.22492737e-03 1.02077273e-03 6.63502316e-04
      1.07181142e-03 3.06231843e-04 8.67656840e-04 5.61424997e-04
      1.02077273e-03 6.12463686e-04 9.69734101e-04 1.99050689e-03
      6.63502316e-04 2.70504784e-03 7.14540947e-04 3.06231843e-04
      3.06231843e-04 1.32700463e-03 1.22492737e-03 1.12284999e-03
      8.67656840e-04 5.61424997e-04 8.67656840e-04 5.61424997e-04
      5.10386366e-04 1.07181142e-03 1.07181142e-03 5.61424997e-04
      5.61424997e-04 1.07181142e-03 7.65579578e-04 1.32700463e-03
      1.42908189e-03 5.61424997e-04 1.83739094e-03 7.14540947e-04
      1.07181142e-03 1.88842963e-03 1.02077273e-03 2.04154552e-04
      1.22492737e-03 1.02077273e-03 1.27596594e-03 1.17388868e-03
      9.69734101e-04 8.16618209e-04 9.18695470e-04 1.48012047e-03
      1.07181142e-03 1.22492737e-03 1.78635237e-03 9.18695470e-04
      8.67656840e-04 8.16618209e-04 3.57270474e-04 7.65579578e-04
      4.08309104e-04 1.22492737e-03 3.06231843e-04 1.27596594e-03
      1.73531368e-03 6.12463686e-04 1.17388868e-03 1.12284999e-03
      1.27596594e-03 3.57270474e-04 1.42908189e-03 5.61424997e-04
      1.12284999e-03 1.48012047e-03 1.12284999e-03 1.22492737e-03
      1.22492737e-03 1.48012047e-03 7.14540947e-04 1.48012047e-03
      6.12463686e-04 1.37804321e-03 1.02077273e-03 1.17388868e-03
      1.12284999e-03 1.07181142e-03 3.57270474e-04 6.63502316e-04
      1.63323642e-03 1.07181142e-03 7.65579578e-04 0. 1.02077273e-03
      1.02077273e-03 6.12463686e-04 1.42908189e-03 1.17388868e-03
      4.59347735e-04 7.14540947e-04 8.67656840e-04 1.02077273e-03
      2.55193183e-04 9.69734101e-04 6.63502316e-04 8.16618209e-04
      7.65579578e-04 9.69734101e-04 7.14540947e-04 1.22492737e-03
      8.16618209e-04 1.27596594e-03 2.14362284e-03 1.42908189e-03
      1.68427511e-03 5.10386366e-04 1.27596594e-03 5.10386366e-04
      6.63502316e-04 8.67656840e-04 1.12284999e-03 1.48012047e-03
      1.07181142e-03 2.19466141e-03 5.10386366e-04 4.08309104e-04
      1.68427511e-03 7.14540947e-04 1.42908189e-03 4.59347735e-04
      6.63502316e-04 1.78635237e-03 8.16618209e-04 1.42908189e-03
      4.59347735e-04 8.16618209e-04 8.16618209e-04 2.60297046e-03
      5.10386366e-04 1.48012047e-03 5.10386366e-04 9.18695470e-04
      1.22492737e-03 8.67656840e-04 1.42908189e-03 2.04154552e-04
      5.10386366e-04 7.65579578e-04 1.17388868e-03 6.12463686e-04
      8.16618209e-04 8.67656840e-04 4.08309104e-04 9.18695470e-04
      2.55193183e-04 6.12463686e-04 4.59347735e-04 9.69734101e-04
      1.37804321e-03 2.50089332e-03 3.57270474e-04 8.67656840e-04
      8.16618209e-04 4.08309104e-04 1.17388868e-03 5.61424997e-04
      7.14540947e-04 5.61424997e-04 6.63502316e-04 1.07181142e-03
      1.12284999e-03 1.88842963e-03 8.16618209e-04 9.18695470e-04
      7.65579578e-04 1.22492737e-03 2.04154552e-04 1.07181142e-03
      9.18695470e-04 7.65579578e-04 5.61424997e-04 1.12284999e-03
      1.17388868e-03 9.18695470e-04 7.65579578e-04 6.63502316e-04
      7.65579578e-04 1.63323642e-03 6.63502316e-04 1.07181142e-03
      1.07181142e-03 9.18695470e-04 1.37804321e-03 1.17388868e-03
      8.16618209e-04 4.08309104e-04 8.16618209e-04 1.68427511e-03
      5.10386366e-04 8.67656840e-04 1.02077273e-03 8.67656840e-04
      6.12463686e-04 1.12284999e-03 9.69734101e-04 1.42908189e-03
      4.59347735e-04 7.14540947e-04 4.08309104e-04 7.14540947e-04
      8.16618209e-04 2.29673879e-03 8.16618209e-04 3.57270474e-04
      1.22492737e-03 8.16618209e-04 5.61424997e-04 9.18695470e-04
      1.17388868e-03 1.22492737e-03 5.10386366e-04 8.67656840e-04
      1.17388868e-03 1.02077273e-03 1.68427511e-03 6.63502316e-04
      6.12463686e-04 8.16618209e-04 1.22492737e-03 1.63323642e-03
      5.61424997e-04 1.58219773e-03 1.07181142e-03 7.65579578e-04
      1.27596594e-03 8.16618209e-04 7.14540947e-04 1.02077273e-03
      2.55193183e-04 4.08309104e-04 7.65579578e-04 1.78635237e-03
      5.61424997e-04 1.07181142e-03 1.37804321e-03 1.17388868e-03
      1.68427511e-03 5.61424997e-04 3.06231843e-04 1.78635237e-03
      1.12284999e-03 4.08309104e-04 1.22492737e-03 1.12284999e-03
      9.69734101e-04 4.08309104e-04 9.18695470e-04 5.10386366e-04
      1.78635237e-03 1.17388868e-03 1.93946820e-03 9.69734101e-04
      1.22492737e-03 1.27596594e-03 2.55193183e-04 9.69734101e-04
      1.63323642e-03 8.67656840e-04 9.69734101e-04 7.14540947e-04
      7.14540947e-04 1.37804321e-03 6.63502316e-04 7.14540947e-04
      1.93946820e-03 1.53115916e-03 7.65579578e-04 7.65579578e-04
      7.14540947e-04 1.99050689e-03 1.12284999e-03 1.12284999e-03
      9.18695470e-04 6.12463686e-04 8.16618209e-04 1.63323642e-03
      1.02077273e-03 1.58219773e-03 9.69734101e-04 5.10386366e-04
      1.22492737e-03 8.67656840e-04 8.67656840e-04 9.18695470e-04
      9.18695470e-04 1.07181142e-03 4.59347735e-04 4.59347735e-04
      9.18695470e-04 1.02077273e-03 1.99050689e-03 1.07181142e-03
      1.32700463e-03 7.14540947e-04 1.07181142e-03 1.32700463e-03
      1.93946820e-03 1.17388868e-03 7.65579578e-04 1.17388868e-03
      8.16618209e-04 6.63502316e-04 7.65579578e-04 1.07181142e-03
      1.22492737e-03 1.53115916e-03 9.18695470e-04 6.63502316e-04
      2.55193183e-04 4.08309104e-04 1.12284999e-03 4.08309104e-04
      6.12463686e-04 5.61424997e-04 1.53115916e-03 7.65579578e-04
      8.67656840e-04 1.58219773e-03 1.27596594e-03 9.18695470e-04
      8.67656840e-04 5.61424997e-04 8.16618209e-04 7.14540947e-04
      1.12284999e-03 1.58219773e-03 1.22492737e-03 4.59347735e-04
      1.88842963e-03 8.16618209e-04 1.73531368e-03 8.16618209e-04
      7.65579578e-04 8.16618209e-04 1.17388868e-03 2.14362284e-03
      7.65579578e-04 9.18695470e-04 1.12284999e-03 1.32700463e-03
      1.68427511e-03 7.65579578e-04 1.17388868e-03 9.69734101e-04
      8.16618209e-04 5.10386366e-04 7.14540947e-04 5.10386366e-04
      1.42908189e-03 1.27596594e-03 6.63502316e-04 1.07181142e-03
      1.53115916e-03 1.53115916e-03 1.48012047e-03 6.63502316e-04
      1.22492737e-03 9.69734101e-04 5.10386366e-04 1.17388868e-03
      5.10386366e-04 2.24569999e-03 9.18695470e-04 9.18695470e-04
      7.65579578e-04 6.63502316e-04 7.65579578e-04 1.63323642e-03
      5.10386380e-05 9.69734101e-04 1.37804321e-03 8.16618209e-04
      1.17388868e-03 5.61424997e-04 1.12284999e-03 9.69734101e-04
      1.83739094e-03 1.07181142e-03 1.99050689e-03 1.12284999e-03
      4.59347735e-04 5.10386380e-05 5.61424997e-04 9.18695470e-04
      8.67656840e-04 5.10386366e-04 6.12463686e-04 6.63502316e-04
      4.08309104e-04 5.61424997e-04 8.67656840e-04 5.10386366e-04
      1.17388868e-03 3.06231843e-04 5.61424997e-04 8.16618209e-04
      1.17388868e-03 9.69734101e-04 1.12284999e-03 8.16618209e-04
      7.65579578e-04 1.17388868e-03 9.69734101e-04 1.22492737e-03
      3.06231843e-04 1.68427511e-03 6.12463686e-04 4.08309104e-04
      1.63323642e-03 1.27596594e-03 1.53115921e-04 7.14540947e-04
      7.14540947e-04 7.14540947e-04 3.57270474e-04 1.58219773e-03
      2.34777736e-03 6.12463686e-04 9.69734101e-04 6.12463686e-04
      8.16618209e-04 4.59347735e-04 1.99050689e-03 8.67656840e-04
      6.12463686e-04 1.32700463e-03 8.67656840e-04 7.14540947e-04
      8.67656840e-04 1.78635237e-03 1.53115921e-04 9.18695470e-04
      6.63502316e-04 6.12463686e-04 1.42908189e-03 9.18695470e-04
      1.53115916e-03 8.16618209e-04 1.48012047e-03 4.08309104e-04
      1.99050689e-03 4.08309104e-04 5.61424997e-04 1.02077273e-03
      7.65579578e-04 3.57270474e-04 1.02077273e-03 7.14540947e-04
      4.08309104e-04 6.12463686e-04 4.59347735e-04 9.69734101e-04
      7.65579578e-04 8.16618209e-04 6.12463686e-04 8.67656840e-04
      9.69734101e-04 1.37804321e-03 1.63323642e-03 5.61424997e-04
      6.63502316e-04 2.80712498e-03 2.04154552e-04 1.02077273e-03
      1.27596594e-03 6.63502316e-04 4.08309104e-04 1.37804321e-03
      7.65579578e-04 1.93946820e-03 6.63502316e-04 6.12463686e-04
      7.65579578e-04 7.14540947e-04 1.07181142e-03 1.12284999e-03
      6.12463686e-04 9.69734101e-04 5.61424997e-04 5.61424997e-04
      2.09258427e-03 9.69734101e-04 8.67656840e-04 8.67656840e-04
      8.16618209e-04 1.07181142e-03 1.68427511e-03 4.08309104e-04
      6.12463686e-04 9.18695470e-04 1.58219773e-03 1.37804321e-03
      8.67656840e-04 1.07181142e-03 1.12284999e-03 1.32700463e-03
      9.69734101e-04 5.61424997e-04 1.12284999e-03 2.55193183e-04
      1.12284999e-03 6.63502316e-04 1.58219773e-03 3.06231843e-04
      2.75608641e-03 6.63502316e-04 1.68427511e-03 1.07181142e-03
      1.48012047e-03 6.63502316e-04 1.32700463e-03 5.61424997e-04
      4.59347735e-04 7.14540947e-04 8.16618209e-04 5.10386366e-04
      4.59347735e-04 4.08309104e-04 5.10386380e-05 1.53115916e-03
      1.27596594e-03 8.16618209e-04 1.12284999e-03 3.57270474e-04
      2.44985474e-03 9.69734101e-04 1.42908189e-03 1.63323642e-03
      6.12463686e-04 8.67656840e-04 6.63502316e-04 1.07181142e-03
      6.12463686e-04 3.06231843e-04 3.57270474e-04 7.14540947e-04
      1.12284999e-03 5.10386366e-04 1.32700463e-03 5.61424997e-04
      4.59347735e-04 5.61424997e-04 1.02077273e-03 1.58219773e-03
      7.14540947e-04 5.61424997e-04 1.42908189e-03 8.16618209e-04
      1.73531368e-03 1.02077273e-03 2.09258427e-03 8.67656840e-04
      7.14540947e-04 5.10386366e-04 5.61424997e-04 7.14540947e-04
      8.16618209e-04 1.02077273e-03 4.08309104e-04 1.07181142e-03
      8.67656840e-04 1.32700463e-03 7.14540947e-04 7.14540947e-04
      1.12284999e-03 6.12463686e-04 1.17388868e-03 2.55193183e-04
      1.17388868e-03 8.16618209e-04 1.73531368e-03</_>
    <_>
      0. 0. 0. 0. 0. 0. 0. 0. 0. 0. 0. 0. 0. 0. 0. 0. 0. 0. 0. 0. 0. 0.
      0. 0. 0. 0. 0. 0. 0. 0. 0. 0. 0. 0. 0. 0. 1.09090909e-01 0. 0. 0.
      0. 0. 0. 0. 0. 0. 0. 0. 0. 0. 0. 0. 0. 0. 0. 0. 0. 0. 0. 0. 0. 0.
      0. 0. 3.63636352e-02 0. 0. 0. 0. 1.45454541e-01 0. 0. 0. 0. 0. 0.
      0. 0. 0. 0. 0. 0. 0. 0. 0. 0. 0. 0. 0. 0. 0. 0. 1.81818176e-02 0.
      0. 1.81818176e-02 0. 0. 0. 0. 0. 0. 0. 0. 0. 0. 0. 0. 0. 0. 0. 0.
      0. 0. 0. 0. 0. 0. 0. 0. 0. 0. 0. 0. 0. 0. 0. 0. 0. 0. 0. 0. 0. 0.
      0. 0. 0. 0. 0. 0. 0. 0. 0. 0. 0. 0. 0. 0. 0. 0. 0. 0. 0. 0. 0. 0.
      0. 0. 0. 0. 0. 0. 0. 0. 0. 0. 0. 0. 0. 0. 0. 0. 0. 0. 0. 0. 0. 0.
      0. 0. 0. 0. 0. 0. 0. 0. 0. 0. 0. 0. 0. 0. 0. 0. 0. 0. 0. 0. 0. 0.
      0. 0. 0. 0. 0. 0. 0. 0. 0. 0. 0. 0. 0. 0. 0. 0. 0. 0. 0. 0. 0. 0.
      0. 0. 0. 0. 0. 0. 0. 0. 0. 0. 0. 0. 0. 0. 0. 0. 0. 0. 0. 0. 0. 0.
      0. 0. 0. 0. 0. 0. 0. 0. 0. 0. 0. 0. 0. 0. 0. 1.81818176e-02 0. 0.
      0. 0. 0. 0. 0. 0. 0. 0. 0. 0. 0. 0. 1.81818176e-02 0. 0. 0.
      1.81818176e-02 0. 0. 0. 0. 0. 0. 0. 0. 0. 0. 0. 0. 0. 0. 0. 0. 0.
      0. 0. 0. 0. 0. 0. 0. 0. 0. 0. 0. 0. 0. 0. 0. 0. 0. 0. 0. 0. 0. 0.
      0. 0. 0. 0. 0. 0. 0. 0. 0. 0. 0. 0. 0. 0. 0. 0. 0. 0. 0. 0. 0. 0.
      0. 0. 0. 0. 0. 0. 0. 0. 0. 0. 0. 0. 0. 0. 0. 0. 0. 0.
      1.81818176e-02 0. 0. 0. 0. 0. 0. 0. 0. 0. 0. 0. 0. 0. 0. 0. 0. 0.
      0. 0. 0. 0. 0. 0. 0. 0. 0. 0. 0. 0. 0. 0. 0. 0. 0. 1.81818176e-02
      0. 0. 0. 0. 0. 0. 0. 0. 0. 0. 0. 0. 0. 0. 0. 0. 0. 0. 0. 0. 0. 0.
      0. 0. 0. 0. 0. 0. 0. 0. 0. 0. 0. 1.81818176e-02 0. 0. 0. 0. 0. 0.
      0. 0. 0. 0. 0. 0. 0. 0. 0. 0. 0. 0. 0. 0. 0. 0. 0. 0. 0. 0. 0. 0.
      0. 0. 0. 0. 0. 0. 0. 0. 0. 0. 0. 0. 0. 0. 0. 0. 0. 0. 0. 0. 0. 0.
      0. 0. 0. 0. 0. 0. 0. 0. 0. 0. 0. 0. 0. 0. 0. 0. 0. 1.81818176e-02
      0. 0. 0. 0. 1.81818176e-02 0. 0. 0. 0. 0. 0. 0. 0. 0. 0. 0. 0. 0.
      0. 0. 0. 0. 0. 0. 0. 0. 0. 0. 0. 0. 0. 0. 0. 0. 1.81818176e-02 0.
      0. 0. 1.81818176e-02 0. 0. 0. 1.81818176e-02 0. 0. 0. 0. 0. 0. 0.
      0. 1.81818176e-02 0. 0. 0. 0. 0. 0. 0. 0. 0. 0. 0. 0. 0. 0. 0. 0.
      0. 0. 0. 0. 0. 0. 0. 0. 0. 0. 0. 0. 0. 0. 0. 0. 0. 0. 0. 0. 0. 0.
      0. 0. 0. 0. 0. 0. 0. 0. 0. 0. 0. 0. 0. 0. 0. 0. 0. 0. 0. 0. 0. 0.
      0. 0. 0. 0. 0. 0. 0. 0. 0. 0. 9.09090862e-02 0. 0. 0. 0. 0. 0. 0.
      0. 0. 0. 0. 0. 0. 0. 0. 3.63636352e-02 0. 0. 0. 0. 0. 0. 0. 0. 0.
      0. 0. 0. 0. 0. 0. 0. 0. 0. 0. 0. 0. 0. 0. 0. 0. 0. 0. 0. 0. 0. 0.
      0. 0. 0. 0. 0. 0. 0. 0. 0. 0. 0. 0. 0. 0. 0. 0. 0. 0. 0. 0. 0. 0.
      0. 0. 0. 0. 0. 0. 0. 0. 0. 0. 0. 0. 0. 0. 0. 0. 0. 0. 0. 0. 0. 0.
      0. 0. 0. 0. 0. 0. 0. 0. 0. 0. 0. 0. 0. 0. 0. 1.81818176e-02 0. 0.
      0. 0. 0. 0. 0. 0. 0. 0. 0. 0. 0. 0. 0. 0. 0. 0. 0. 0.
      1.81818176e-02 0. 0. 0. 0. 0. 0. 0. 0. 0. 0. 0. 0. 0. 0. 0. 0. 0.
      0. 0. 0. 0. 0. 0. 0. 0. 0. 0. 0. 0. 0. 0. 0. 0. 0. 0. 0.
      3.63636352e-02 0. 0. 0. 0. 0. 0. 0. 0. 0. 0. 0. 0. 0. 0.
      9.09090862e-02 0. 0. 0. 0. 0. 0. 0. 0. 0. 0. 0. 0. 0. 0. 0. 0. 0.
      0. 0. 0. 0. 0. 0. 0. 0. 0. 0. 0. 0. 0. 0. 0. 0. 0. 0. 0. 0. 0. 0.
      0. 0. 0. 0. 0. 0. 0. 0. 0. 0. 0. 0. 0. 0. 1.81818176e-02 0. 0. 0.
      0. 0. 0. 0. 3.63636352e-02 0. 0. 0. 0. 0. 0. 0. 0. 0. 0. 0. 0. 0.
      0. 0. 0. 0. 0. 1.81818176e-02 0. 0. 0. 0. 0. 0. 0. 0. 0. 0. 0.
      1.81818176e-02 0. 0. 0. 0. 0. 0. 0. 0. 0. 0. 1.81818176e-02 0. 0.
      0. 0. 0. 0. 0. 0. 0. 0. 0. 0. 0. 0. 1.81818176e-02 0. 0. 0. 0. 0.
      0. 0. 0. 0. 0. 0. 0. 0. 0. 0. 0. 0. 0. 0. 0. 0. 0. 1.81818176e-02
      0. 0. 0. 0. 0. 0. 0. 0. 0. 0. 0. 0. 0. 0. 0. 0. 0. 0. 0. 0. 0. 0.
      0. 0. 0. 0. 0. 0. 0. 0. 0. 0. 0. 0. 0. 0. 0. 0. 0. 0. 0. 0.
      1.81818176e-02 0. 0. 0. 0. 0. 0. 0. 0. 0. 0. 0. 0. 0. 0. 0. 0.</_></uncompressed_support_vectors>
  <decision_functions>
    <_>
      <sv_count>1</sv_count>
      <rho>-9.9976281755460095e-01</rho>
      <alpha>
        1.</alpha>
      <index>
        0</index></_></decision_functions></opencv_ml_svm>
</opencv_storage>
